{"learner":{"attributes":{"scikit_learn":"{\"_estimator_type\": \"regressor\"}"},"feature_names":["Open","High","Low","Volume"],"feature_types":["float","float","float","float"],"gradient_booster":{"model":{"gbtree_model_param":{"num_parallel_tree":"1","num_trees":"200"},"iteration_indptr":[0,1,2,3,4,5,6,7,8,9,10,11,12,13,14,15,16,17,18,19,20,21,22,23,24,25,26,27,28,29,30,31,32,33,34,35,36,37,38,39,40,41,42,43,44,45,46,47,48,49,50,51,52,53,54,55,56,57,58,59,60,61,62,63,64,65,66,67,68,69,70,71,72,73,74,75,76,77,78,79,80,81,82,83,84,85,86,87,88,89,90,91,92,93,94,95,96,97,98,99,100,101,102,103,104,105,106,107,108,109,110,111,112,113,114,115,116,117,118,119,120,121,122,123,124,125,126,127,128,129,130,131,132,133,134,135,136,137,138,139,140,141,142,143,144,145,146,147,148,149,150,151,152,153,154,155,156,157,158,159,160,161,162,163,164,165,166,167,168,169,170,171,172,173,174,175,176,177,178,179,180,181,182,183,184,185,186,187,188,189,190,191,192,193,194,195,196,197,198,199,200],"tree_info":[0,0,0,0,0,0,0,0,0,0,0,0,0,0,0,0,0,0,0,0,0,0,0,0,0,0,0,0,0,0,0,0,0,0,0,0,0,0,0,0,0,0,0,0,0,0,0,0,0,0,0,0,0,0,0,0,0,0,0,0,0,0,0,0,0,0,0,0,0,0,0,0,0,0,0,0,0,0,0,0,0,0,0,0,0,0,0,0,0,0,0,0,0,0,0,0,0,0,0,0,0,0,0,0,0,0,0,0,0,0,0,0,0,0,0,0,0,0,0,0,0,0,0,0,0,0,0,0,0,0,0,0,0,0,0,0,0,0,0,0,0,0,0,0,0,0,0,0,0,0,0,0,0,0,0,0,0,0,0,0,0,0,0,0,0,0,0,0,0,0,0,0,0,0,0,0,0,0,0,0,0,0,0,0,0,0,0,0,0,0,0,0,0,0,0,0,0,0,0,0],"trees":[{"base_weights":[2.2045036E-7,-3.505355E1,6.5705475E1,-4.327386E1,-1.273949E1,3.564164E1,1.0397396E2,-4.689752E1,-3.7621796E1,-1.9647638E1,-2.335628E0,3.0834347E1,5.4505844E1,9.1729256E1,5.487773E0,-2.4358418E0,-2.2257984E0,-1.9725052E0,-1.5194259E0,-1.184604E0,-1.674998E1,-7.2672887E0,7.4930797E0,2.3208204E1,3.4835865E1,2.3675978E0,3.0340507E0,3.6231847E0,4.736895E0,-9.2103237E-1,-7.203354E-1,-4.1123152E-1,-1.21099785E-1,1.1343024E-1,6.260184E-1,9.175618E-1,1.2489747E0,1.6050249E0,1.914765E0],"categories":[],"categories_nodes":[],"categories_segments":[],"categories_sizes":[],"default_left":[0,0,0,0,0,0,0,0,0,0,0,0,0,0,0,0,0,0,0,0,0,0,0,0,0,0,0,0,0,0,0,0,0,0,0,0,0,0,0],"id":0,"left_children":[1,3,5,7,9,11,13,15,17,19,21,23,25,27,-1,-1,-1,-1,-1,-1,29,31,33,35,37,-1,-1,-1,-1,-1,-1,-1,-1,-1,-1,-1,-1,-1,-1],"loss_changes":[7.275841E6,3.773115E5,1.2606905E6,2.905975E4,3.9914625E4,5.4272438E4,2.4125E4,1.78725E3,6.6434375E3,3.5174453E3,1.0863678E4,1.42665E4,2.6045312E3,2.467E3,0E0,0E0,0E0,0E0,0E0,0E0,5.097578E2,6.7123145E2,1.9414673E3,1.0299297E3,1.8177188E3,0E0,0E0,0E0,0E0,0E0,0E0,0E0,0E0,0E0,0E0,0E0,0E0,0E0,0E0],"parents":[2147483647,0,0,1,1,2,2,3,3,4,4,5,5,6,6,7,7,8,8,9,9,10,10,11,11,12,12,13,13,20,20,21,21,22,22,23,23,24,24],"right_children":[2,4,6,8,10,12,14,16,18,20,22,24,26,28,-1,-1,-1,-1,-1,-1,30,32,34,36,38,-1,-1,-1,-1,-1,-1,-1,-1,-1,-1,-1,-1,-1,-1],"split_conditions":[7.13535E1,2.94405E1,1.22825E2,1.49E1,4.515E1,9.91015E1,1.59694E2,1.05135E1,2.21735E1,3.62995E1,5.6995E1,8.6541E1,1.1408E2,1.43998E2,5.487773E0,-2.4358418E0,-2.2257984E0,-1.9725052E0,-1.5194259E0,-1.184604E0,4.08E1,5.13015E1,6.5288E1,7.935E1,9.34885E1,2.3675978E0,3.0340507E0,3.6231847E0,4.736895E0,-9.2103237E-1,-7.203354E-1,-4.1123152E-1,-1.21099785E-1,1.1343024E-1,6.260184E-1,9.175618E-1,1.2489747E0,1.6050249E0,1.914765E0],"split_indices":[2,1,2,1,2,2,1,1,1,2,1,1,1,1,0,0,0,0,0,0,1,1,1,1,1,0,0,0,0,0,0,0,0,0,0,0,0,0,0],"split_type":[0,0,0,0,0,0,0,0,0,0,0,0,0,0,0,0,0,0,0,0,0,0,0,0,0,0,0,0,0,0,0,0,0,0,0,0,0,0,0],"sum_hessian":[3.157E3,2.059E3,1.098E3,1.504E3,5.55E2,6.16E2,4.82E2,9.12E2,5.92E2,3.33E2,2.22E2,4.93E2,1.23E2,1.6E2,3.22E2,5.06E2,4.06E2,4.69E2,1.23E2,1.36E2,1.97E2,1.48E2,7.4E1,1.72E2,3.21E2,6.1E1,6.2E1,2.5E1,1.35E2,1.11E2,8.6E1,1.23E2,2.5E1,3.7E1,3.7E1,4.9E1,1.23E2,1.85E2,1.36E2],"tree_param":{"num_deleted":"0","num_feature":"4","num_nodes":"39","size_leaf_vector":"1"}},{"base_weights":[4.4852844E-3,-3.3306366E1,6.2443386E1,-4.1232E1,-1.241504E1,3.387841E1,9.880393E1,-4.467509E1,-3.6104492E1,-1.8949718E1,-2.220358E0,2.9579733E1,5.2996746E1,8.647408E1,5.1996512E0,-2.3168943E0,-2.1243992E0,-1.902865E0,-1.5241363E0,-1.1587169E0,-1.6136934E1,-6.9094467E0,7.124903E0,2.2806255E1,3.382429E1,2.3003795E0,2.885124E0,3.6274567E0,4.5213265E0,-8.853833E-1,-6.847326E-1,-3.9083573E-1,-1.1583638E-1,1.0829031E-1,5.9482515E-1,9.3281955E-1,1.2566166E0,1.5450631E0,1.8377861E0],"categories":[],"categories_nodes":[],"categories_segments":[],"categories_sizes":[],"default_left":[0,0,0,0,0,0,0,0,0,0,0,0,0,0,0,0,0,0,0,0,0,0,0,0,0,0,0,0,0,0,0,0,0,0,0,0,0,0,0],"id":1,"left_children":[1,3,5,7,9,11,13,15,17,19,21,23,25,27,-1,-1,-1,-1,-1,-1,29,31,33,35,37,-1,-1,-1,-1,-1,-1,-1,-1,-1,-1,-1,-1,-1,-1],"loss_changes":[6.570382E6,3.4057675E5,1.138116E6,2.474525E4,3.77975E4,4.9139625E4,2.191E4,1.26425E3,5.48175E3,3.7375469E3,9.821258E3,1.37763125E4,1.0288438E3,1.64025E3,0E0,0E0,0E0,0E0,0E0,0E0,5.669336E2,6.0274805E2,1.7489458E3,1.4423984E3,1.5119062E3,0E0,0E0,0E0,0E0,0E0,0E0,0E0,0E0,0E0,0E0,0E0,0E0,0E0,0E0],"parents":[2147483647,0,0,1,1,2,2,3,3,4,4,5,5,6,6,7,7,8,8,9,9,10,10,11,11,12,12,13,13,20,20,21,21,22,22,23,23,24,24],"right_children":[2,4,6,8,10,12,14,16,18,20,22,24,26,28,-1,-1,-1,-1,-1,-1,30,32,34,36,38,-1,-1,-1,-1,-1,-1,-1,-1,-1,-1,-1,-1,-1,-1],"split_conditions":[7.34995E1,2.81525E1,1.22825E2,1.4465E1,4.515E1,1.000775E2,1.55076E2,1.00215E1,1.996E1,3.6249E1,5.6508E1,8.61E1,1.0834E2,1.4785E2,5.1996512E0,-2.3168943E0,-2.1243992E0,-1.902865E0,-1.5241363E0,-1.1587169E0,4.08E1,5.13015E1,6.5288E1,7.9335E1,9.34885E1,2.3003795E0,2.885124E0,3.6274567E0,4.5213265E0,-8.853833E-1,-6.847326E-1,-3.9083573E-1,-1.1583638E-1,1.0829031E-1,5.9482515E-1,9.3281955E-1,1.2566166E0,1.5450631E0,1.8377861E0],"split_indices":[1,2,2,1,2,2,2,2,2,1,0,2,2,1,0,0,0,0,0,0,1,1,1,2,1,0,0,0,0,0,0,0,0,0,0,0,0,0,0],"split_type":[0,0,0,0,0,0,0,0,0,0,0,0,0,0,0,0,0,0,0,0,0,0,0,0,0,0,0,0,0,0,0,0,0,0,0,0,0,0,0],"sum_hessian":[3.157E3,2.059E3,1.098E3,1.492E3,5.67E2,6.16E2,4.82E2,8.88E2,6.04E2,3.45E2,2.22E2,5.05E2,1.11E2,1.48E2,3.34E2,4.93E2,3.95E2,4.44E2,1.6E2,1.35E2,2.1E2,1.48E2,7.4E1,1.97E2,3.08E2,4.9E1,6.2E1,3.7E1,1.11E2,1.24E2,8.6E1,1.23E2,2.5E1,3.7E1,3.7E1,7.4E1,1.23E2,1.6E2,1.48E2],"tree_param":{"num_deleted":"0","num_feature":"4","num_nodes":"39","size_leaf_vector":"1"}},{"base_weights":[8.601216E-3,-3.1646652E1,5.9344193E1,-3.9066498E1,-1.150544E1,3.220303E1,9.3892334E1,-4.1750515E1,-3.282011E1,-1.7467264E1,-1.6746491E0,2.7848572E1,4.9290936E1,8.570944E1,5.0619035E0,-2.1811006E0,-1.955615E0,-1.7310337E0,-1.348231E0,-2.1133898E1,-1.4619813E1,-5.733831E0,7.95222E0,2.055788E1,3.1279566E1,2.0760794E0,2.6906643E0,3.451468E0,4.4238896E0,-1.1319917E0,-9.359407E-1,-8.0352575E-1,-6.0131955E-1,-3.4424475E-1,-1.1804801E-3,1.3783067E-1,5.64892E-1,7.838566E-1,1.0943903E0,1.4099058E0,1.6975514E0],"categories":[],"categories_nodes":[],"categories_segments":[],"categories_sizes":[],"default_left":[0,0,0,0,0,0,0,0,0,0,0,0,0,0,0,0,0,0,0,0,0,0,0,0,0,0,0,0,0,0,0,0,0,0,0,0,0,0,0,0,0],"id":2,"left_children":[1,3,5,7,9,11,13,15,17,19,21,23,25,27,-1,-1,-1,-1,-1,29,31,33,35,37,39,-1,-1,-1,-1,-1,-1,-1,-1,-1,-1,-1,-1,-1,-1,-1,-1],"loss_changes":[5.933497E6,3.074065E5,1.02748325E6,2.38615E4,3.255761E4,4.4537375E4,2.03555E4,3.473125E3,3.8847188E3,3.3034531E3,8.290888E3,1.17140625E4,2.1224062E3,4.74375E3,0E0,0E0,0E0,0E0,0E0,1.18125E2,5.5166016E2,9.7918945E2,1.0639551E3,7.0191406E2,1.792125E3,0E0,0E0,0E0,0E0,0E0,0E0,0E0,0E0,0E0,0E0,0E0,0E0,0E0,0E0,0E0,0E0],"parents":[2147483647,0,0,1,1,2,2,3,3,4,4,5,5,6,6,7,7,8,8,9,9,10,10,11,11,12,12,13,13,19,19,20,20,21,21,22,22,23,23,24,24],"right_children":[2,4,6,8,10,12,14,16,18,20,22,24,26,28,-1,-1,-1,-1,-1,30,32,34,36,38,40,-1,-1,-1,-1,-1,-1,-1,-1,-1,-1,-1,-1,-1,-1,-1,-1],"split_conditions":[7.13535E1,2.86555E1,1.262205E2,1.5949E1,4.7505E1,9.91015E1,1.595025E2,1.10345E1,2.3275E1,3.7468E1,5.88965E1,8.40295E1,1.1118E2,1.4785E2,5.0619035E0,-2.1811006E0,-1.955615E0,-1.7310337E0,-1.348231E0,3.41385E1,4.1247E1,5.5527E1,6.46975E1,7.59155E1,9.03265E1,2.0760794E0,2.6906643E0,3.451468E0,4.4238896E0,-1.1319917E0,-9.359407E-1,-8.0352575E-1,-6.0131955E-1,-3.4424475E-1,-1.1804801E-3,1.3783067E-1,5.64892E-1,7.838566E-1,1.0943903E0,1.4099058E0,1.6975514E0],"split_indices":[2,2,1,1,1,2,2,2,0,1,1,2,1,1,0,0,0,0,0,1,2,1,0,2,2,0,0,0,0,0,0,0,0,0,0,0,0,0,0,0,0],"split_type":[0,0,0,0,0,0,0,0,0,0,0,0,0,0,0,0,0,0,0,0,0,0,0,0,0,0,0,0,0,0,0,0,0,0,0,0,0,0,0,0,0],"sum_hessian":[3.157E3,2.059E3,1.098E3,1.504E3,5.55E2,6.16E2,4.82E2,1.048E3,4.56E2,3.45E2,2.1E2,4.93E2,1.23E2,2.34E2,2.48E2,6.04E2,4.44E2,3.45E2,1.11E2,1.48E2,1.97E2,1.48E2,6.2E1,1.6E2,3.33E2,4.9E1,7.4E1,3.7E1,1.97E2,8.6E1,6.2E1,1.23E2,7.4E1,1.23E2,2.5E1,2.5E1,3.7E1,3.7E1,1.23E2,1.6E2,1.73E2],"tree_param":{"num_deleted":"0","num_feature":"4","num_nodes":"41","size_leaf_vector":"1"}},{"base_weights":[1.2084205E-2,-3.0342932E1,5.589042E1,-3.7437508E1,-1.2334003E1,3.0243893E1,8.922669E1,-4.0392067E1,-3.2997326E1,-1.7900877E1,-3.3417392E0,2.5603899E1,4.5050827E1,8.181529E1,4.8287163E0,-2.1017263E0,-1.9305404E0,-1.7204117E0,-1.4006816E0,-1.1050497E0,-1.5228279E1,-7.0611806E0,4.092108E0,1.9053774E1,2.9209457E1,1.9178288E0,2.5572202E0,3.2848268E0,4.217121E0,-8.271042E-1,-6.4997387E-1,-4.0322796E-1,-2.7615702E-1,6.629403E-2,4.7857633E-1,7.2145003E-1,1.040112E0,1.3181131E0,1.5633491E0],"categories":[],"categories_nodes":[],"categories_segments":[],"categories_sizes":[],"default_left":[0,0,0,0,0,0,0,0,0,0,0,0,0,0,0,0,0,0,0,0,0,0,0,0,0,0,0,0,0,0,0,0,0,0,0,0,0,0,0],"id":3,"left_children":[1,3,5,7,9,11,13,15,17,19,21,23,25,27,-1,-1,-1,-1,-1,-1,29,31,33,35,37,-1,-1,-1,-1,-1,-1,-1,-1,-1,-1,-1,-1,-1,-1],"loss_changes":[5.3582565E6,2.610745E5,9.480165E5,1.7925625E4,2.8974281E4,4.2130125E4,1.8401E4,9.4275E2,3.19875E3,3.6820625E3,6.194791E3,1.082675E4,4.1162812E3,4.5205E3,0E0,0E0,0E0,0E0,0E0,0E0,4.3502344E2,1.8540088E2,1.1241082E3,1.1068516E3,9.859375E2,0E0,0E0,0E0,0E0,0E0,0E0,0E0,0E0,0E0,0E0,0E0,0E0,0E0,0E0],"parents":[2147483647,0,0,1,1,2,2,3,3,4,4,5,5,6,6,7,7,8,8,9,9,10,10,11,11,12,12,13,13,20,20,21,21,22,22,23,23,24,24],"right_children":[2,4,6,8,10,12,14,16,18,20,22,24,26,28,-1,-1,-1,-1,-1,-1,30,32,34,36,38,-1,-1,-1,-1,-1,-1,-1,-1,-1,-1,-1,-1,-1,-1],"split_conditions":[6.95155E1,2.6984E1,1.22825E2,1.3858E1,4.4375E1,9.6501E1,1.6025E2,9.799E0,2.03445E1,3.5362E1,5.5527E1,8.40295E1,1.1118E2,1.4785E2,4.8287163E0,-2.1017263E0,-1.9305404E0,-1.7204117E0,-1.4006816E0,-1.1050497E0,3.99E1,4.8776E1,6.5288E1,7.59155E1,8.9364E1,1.9178288E0,2.5572202E0,3.2848268E0,4.217121E0,-8.271042E-1,-6.4997387E-1,-4.0322796E-1,-2.7615702E-1,6.629403E-2,4.7857633E-1,7.2145003E-1,1.040112E0,1.3181131E0,1.5633491E0],"split_indices":[2,2,2,2,0,2,2,1,1,1,1,2,1,1,0,0,0,0,0,0,1,2,1,2,2,0,0,0,0,0,0,0,0,0,0,0,0,0,0],"split_type":[0,0,0,0,0,0,0,0,0,0,0,0,0,0,0,0,0,0,0,0,0,0,0,0,0,0,0,0,0,0,0,0,0,0,0,0,0,0,0],"sum_hessian":[3.157E3,2.046E3,1.111E3,1.467E3,5.79E2,6.29E2,4.82E2,8.76E2,5.91E2,3.57E2,2.22E2,4.81E2,1.48E2,2.46E2,2.36E2,4.44E2,4.32E2,4.56E2,1.35E2,1.36E2,2.21E2,1.48E2,7.4E1,1.73E2,3.08E2,7.4E1,7.4E1,3.7E1,2.09E2,1.35E2,8.6E1,8.7E1,6.1E1,5E1,2.4E1,5E1,1.23E2,1.35E2,1.73E2],"tree_param":{"num_deleted":"0","num_feature":"4","num_nodes":"39","size_leaf_vector":"1"}},{"base_weights":[1.5146427E-2,-2.8571318E1,5.3598495E1,-3.517146E1,-1.0113627E1,2.9625387E1,8.549974E1,-3.7372807E1,-2.8556047E1,-1.5520117E1,-1.5075568E0,2.5630789E1,4.7835896E1,3.9563553E0,4.6086736E0,-1.9596194E0,-1.735268E0,-1.5263295E0,-1.2096989E0,-1.8536688E1,-1.3020175E1,-4.6886334E0,8.564226E0,2.0098734E1,2.967956E1,2.0932493E0,2.5987954E0,-1.0021127E0,-8.391981E-1,-7.171957E-1,-5.434896E-1,-3.104147E-1,1.9682197E-2,1.7587797E-1,5.099075E-1,8.1846905E-1,1.116832E0,1.3612965E0,1.6192015E0],"categories":[],"categories_nodes":[],"categories_segments":[],"categories_sizes":[],"default_left":[0,0,0,0,0,0,0,0,0,0,0,0,0,0,0,0,0,0,0,0,0,0,0,0,0,0,0,0,0,0,0,0,0,0,0,0,0,0,0],"id":4,"left_children":[1,3,5,7,9,11,13,15,17,19,21,23,25,-1,-1,-1,-1,-1,-1,27,29,31,33,35,37,-1,-1,-1,-1,-1,-1,-1,-1,-1,-1,-1,-1,-1,-1],"loss_changes":[4.838825E6,2.5060038E5,8.379515E5,2.1024625E4,2.5288176E4,4.452975E4,1.2738E4,4.148625E3,2.5535938E3,2.2774297E3,6.800407E3,1.1005625E4,5.926094E2,0E0,0E0,0E0,0E0,0E0,0E0,5.680078E1,3.7354102E2,1.2459014E3,3.846665E2,1.4871562E3,1.0891406E3,0E0,0E0,0E0,0E0,0E0,0E0,0E0,0E0,0E0,0E0,0E0,0E0,0E0,0E0],"parents":[2147483647,0,0,1,1,2,2,3,3,4,4,5,5,6,6,7,7,8,8,9,9,10,10,11,11,12,12,19,19,20,20,21,21,22,22,23,23,24,24],"right_children":[2,4,6,8,10,12,14,16,18,20,22,24,26,-1,-1,-1,-1,-1,-1,28,30,32,34,36,38,-1,-1,-1,-1,-1,-1,-1,-1,-1,-1,-1,-1,-1,-1],"split_conditions":[7.34995E1,2.9519E1,1.3484E2,1.654E1,4.7505E1,1.0488E2,1.646375E2,1.1631E1,2.3275E1,3.7414E1,5.8957E1,8.875E1,1.129095E2,3.9563553E0,4.6086736E0,-1.9596194E0,-1.735268E0,-1.5263295E0,-1.2096989E0,3.35325E1,4.1875E1,5.4678E1,6.46975E1,7.98945E1,9.45875E1,2.0932493E0,2.5987954E0,-1.0021127E0,-8.391981E-1,-7.171957E-1,-5.434896E-1,-3.104147E-1,1.9682197E-2,1.7587797E-1,5.099075E-1,8.1846905E-1,1.116832E0,1.3612965E0,1.6192015E0],"split_indices":[1,2,1,2,1,1,1,2,0,2,2,1,2,0,0,0,0,0,0,2,1,2,0,2,1,0,0,0,0,0,0,0,0,0,0,0,0,0,0],"split_type":[0,0,0,0,0,0,0,0,0,0,0,0,0,0,0,0,0,0,0,0,0,0,0,0,0,0,0,0,0,0,0,0,0,0,0,0,0,0,0],"sum_hessian":[3.157E3,2.059E3,1.098E3,1.516E3,5.43E2,6.28E2,4.7E2,1.134E3,3.82E2,3.33E2,2.1E2,5.17E2,1.11E2,2.47E2,2.23E2,6.66E2,4.68E2,2.59E2,1.23E2,1.48E2,1.85E2,1.6E2,5E1,2.21E2,2.96E2,5E1,6.1E1,7.4E1,7.4E1,1.11E2,7.4E1,1.23E2,3.7E1,1.3E1,3.7E1,8.6E1,1.35E2,1.61E2,1.35E2],"tree_param":{"num_deleted":"0","num_feature":"4","num_nodes":"39","size_leaf_vector":"1"}},{"base_weights":[1.7250042E-2,-2.7147726E1,5.0936115E1,-3.3511368E1,-9.873581E0,2.815945E1,8.124522E1,-3.605616E1,-2.8607273E1,-1.5233203E1,-1.801889E0,2.4360508E1,4.547814E1,7.5735344E1,4.4166217E0,-1.8864163E0,-1.7064425E0,-3.0037212E1,-1.1571397E0,-1.813707E1,-1.2825089E1,-5.175698E0,6.848668E0,1.9107506E1,2.8204971E1,1.990827E0,2.4700873E0,3.2686937E0,3.885946E0,-1.5622628E0,-1.410781E0,-9.9855006E-1,-8.3002883E-1,-6.9830674E-1,-5.475063E-1,-3.1892657E-1,-5.5722978E-2,1.2290573E-1,4.8362517E-1,7.783973E-1,1.0615643E0,1.2929667E0,1.5395825E0],"categories":[],"categories_nodes":[],"categories_segments":[],"categories_sizes":[],"default_left":[0,0,0,0,0,0,0,0,0,0,0,0,0,0,0,0,0,0,0,0,0,0,0,0,0,0,0,0,0,0,0,0,0,0,0,0,0,0,0,0,0,0,0],"id":5,"left_children":[1,3,5,7,9,11,13,15,17,19,21,23,25,27,-1,-1,-1,29,-1,31,33,35,37,39,41,-1,-1,-1,-1,-1,-1,-1,-1,-1,-1,-1,-1,-1,-1,-1,-1,-1,-1],"loss_changes":[4.3695595E6,2.2611762E5,7.56396E5,1.7750625E4,2.402579E4,4.027578E4,1.17025E4,1.893375E3,3.3602812E3,2.103E3,6.5437744E3,9.922094E3,5.209375E2,5.095E2,0E0,0E0,0E0,1.621875E1,0E0,8.8328125E1,2.45E2,7.79375E2,7.5731055E2,1.3383047E3,1.0057656E3,0E0,0E0,0E0,0E0,0E0,0E0,0E0,0E0,0E0,0E0,0E0,0E0,0E0,0E0,0E0,0E0,0E0,0E0],"parents":[2147483647,0,0,1,1,2,2,3,3,4,4,5,5,6,6,7,7,8,8,9,9,10,10,11,11,12,12,13,13,17,17,19,19,20,20,21,21,22,22,23,23,24,24],"right_children":[2,4,6,8,10,12,14,16,18,20,22,24,26,28,-1,-1,-1,30,-1,32,34,36,38,40,42,-1,-1,-1,-1,-1,-1,-1,-1,-1,-1,-1,-1,-1,-1,-1,-1,-1,-1],"split_conditions":[7.13535E1,2.94405E1,1.31591E2,1.55115E1,4.5562E1,1.016E2,1.6236E2,1.07415E1,2.3829E1,3.7468E1,5.80135E1,8.875E1,1.129095E2,1.4825E2,4.4166217E0,-1.8864163E0,-1.7064425E0,1.81805E1,-1.1571397E0,3.34435E1,4.11995E1,5.13015E1,6.46975E1,8.17E1,9.28E1,1.990827E0,2.4700873E0,3.2686937E0,3.885946E0,-1.5622628E0,-1.410781E0,-9.9855006E-1,-8.3002883E-1,-6.9830674E-1,-5.475063E-1,-3.1892657E-1,-5.5722978E-2,1.2290573E-1,4.8362517E-1,7.783973E-1,1.0615643E0,1.2929667E0,1.5395825E0],"split_indices":[2,1,2,1,1,2,2,1,1,1,2,1,2,2,0,0,0,2,0,1,1,1,0,1,2,0,0,0,0,0,0,0,0,0,0,0,0,0,0,0,0,0,0],"split_type":[0,0,0,0,0,0,0,0,0,0,0,0,0,0,0,0,0,0,0,0,0,0,0,0,0,0,0,0,0,0,0,0,0,0,0,0,0,0,0,0,0,0,0],"sum_hessian":[3.157E3,2.059E3,1.098E3,1.504E3,5.55E2,6.28E2,4.7E2,9.86E2,5.18E2,3.33E2,2.22E2,5.17E2,1.11E2,2.71E2,1.99E2,5.18E2,4.68E2,4.07E2,1.11E2,1.48E2,1.85E2,1.6E2,6.2E1,2.21E2,2.96E2,5E1,6.1E1,4.9E1,2.22E2,2.35E2,1.72E2,6.2E1,8.6E1,1.11E2,7.4E1,1.23E2,3.7E1,2.5E1,3.7E1,8.6E1,1.35E2,1.61E2,1.35E2],"tree_param":{"num_deleted":"0","num_feature":"4","num_nodes":"43","size_leaf_vector":"1"}},{"base_weights":[1.9598711E-2,-2.6030579E1,4.797346E1,-3.202695E1,-1.0360397E1,2.5966206E1,7.6579254E1,-3.4662598E1,-2.8147005E1,-1.5162572E1,-2.86303E0,2.1959213E1,3.8754158E1,6.608102E1,8.046195E1,-1.8488356E0,-1.6816467E0,-1.4747218E0,-1.1898088E0,-9.369233E-1,-1.3080817E1,-6.05289E0,3.5123322E0,1.5994917E1,2.4900822E1,1.6051317E0,2.1562662E0,2.6585894E0,3.425474E0,3.830956E0,4.331229E0,-7.1062773E-1,-5.580655E-1,-3.5640493E-1,-2.448488E-1,5.8225196E-2,4.0807042E-1,6.15824E-1,8.7635535E-1,1.123786E0,1.3410223E0],"categories":[],"categories_nodes":[],"categories_segments":[],"categories_sizes":[],"default_left":[0,0,0,0,0,0,0,0,0,0,0,0,0,0,0,0,0,0,0,0,0,0,0,0,0,0,0,0,0,0,0,0,0,0,0,0,0,0,0,0,0],"id":6,"left_children":[1,3,5,7,9,11,13,15,17,19,21,23,25,27,29,-1,-1,-1,-1,-1,31,33,35,37,39,-1,-1,-1,-1,-1,-1,-1,-1,-1,-1,-1,-1,-1,-1,-1,-1],"loss_changes":[3.9462432E6,1.9201312E5,6.9805425E5,1.4159E4,2.040666E4,3.1430969E4,1.437075E4,8.46E2,2.8390625E3,2.3305703E3,4.556302E3,8.0582188E3,2.9477344E3,6.2075E2,1.60425E3,0E0,0E0,0E0,0E0,0E0,3.236328E2,1.5027832E2,8.0913855E2,6.971719E2,8.9153125E2,0E0,0E0,0E0,0E0,0E0,0E0,0E0,0E0,0E0,0E0,0E0,0E0,0E0,0E0,0E0,0E0],"parents":[2147483647,0,0,1,1,2,2,3,3,4,4,5,5,6,6,7,7,8,8,9,9,10,10,11,11,12,12,13,13,14,14,20,20,21,21,22,22,23,23,24,24],"right_children":[2,4,6,8,10,12,14,16,18,20,22,24,26,28,30,-1,-1,-1,-1,-1,32,34,36,38,40,-1,-1,-1,-1,-1,-1,-1,-1,-1,-1,-1,-1,-1,-1,-1,-1],"split_conditions":[6.95155E1,2.75065E1,1.242E2,1.4167E1,4.4375E1,9.86815E1,1.545E2,8.8375E0,2.01855E1,3.49005E1,5.48905E1,8.3414E1,1.088395E2,1.43998E2,1.69746E2,-1.8488356E0,-1.6816467E0,-1.4747218E0,-1.1898088E0,-9.369233E-1,3.99E1,4.8373E1,6.5288E1,7.59155E1,9.11875E1,1.6051317E0,2.1562662E0,2.6585894E0,3.425474E0,3.830956E0,4.331229E0,-7.1062773E-1,-5.580655E-1,-3.5640493E-1,-2.448488E-1,5.8225196E-2,4.0807042E-1,6.15824E-1,8.7635535E-1,1.123786E0,1.3410223E0],"split_indices":[2,2,0,1,0,1,2,1,0,0,0,2,1,1,1,0,0,0,0,0,1,2,1,2,1,0,0,0,0,0,0,0,0,0,0,0,0,0,0,0,0],"split_type":[0,0,0,0,0,0,0,0,0,0,0,0,0,0,0,0,0,0,0,0,0,0,0,0,0,0,0,0,0,0,0,0,0,0,0,0,0,0,0,0,0],"sum_hessian":[3.157E3,2.046E3,1.111E3,1.479E3,5.67E2,6.29E2,4.82E2,8.76E2,6.03E2,3.45E2,2.22E2,4.81E2,1.48E2,1.35E2,3.47E2,2.59E2,6.17E2,4.56E2,1.47E2,1.24E2,2.21E2,1.48E2,7.4E1,1.61E2,3.2E2,6.2E1,8.6E1,2.5E1,1.1E2,2.22E2,1.25E2,1.35E2,8.6E1,7.4E1,7.4E1,5E1,2.4E1,5E1,1.11E2,1.47E2,1.73E2],"tree_param":{"num_deleted":"0","num_feature":"4","num_nodes":"41","size_leaf_vector":"1"}},{"base_weights":[2.287127E-2,-2.4510563E1,4.6009087E1,-3.0170944E1,-8.680947E0,2.4977564E1,7.278018E1,-3.2025723E1,-2.4334574E1,-1.33237095E1,-1.2905982E0,2.1354696E1,3.751495E1,6.3932148E1,7.696518E1,-1.6807524E0,-1.4830759E0,-1.3016601E0,-1.0377387E0,-1.5716842E1,-1.1005726E1,-4.0248523E0,7.366373E0,1.6187555E1,2.4178518E1,1.6306784E0,2.1377227E0,2.531143E0,3.3003242E0,3.6581967E0,4.1163864E0,-8.6014986E-1,-7.1358156E-1,-5.850065E-1,-4.1154334E-1,-2.663879E-1,1.6632607E-2,2.3237324E-1,4.90098E-1,6.611272E-1,8.842185E-1,1.1071026E0,1.3108362E0],"categories":[],"categories_nodes":[],"categories_segments":[],"categories_sizes":[],"default_left":[0,0,0,0,0,0,0,0,0,0,0,0,0,0,0,0,0,0,0,0,0,0,0,0,0,0,0,0,0,0,0,0,0,0,0,0,0,0,0,0,0,0,0],"id":7,"left_children":[1,3,5,7,9,11,13,15,17,19,21,23,25,27,29,-1,-1,-1,-1,31,33,35,37,39,41,-1,-1,-1,-1,-1,-1,-1,-1,-1,-1,-1,-1,-1,-1,-1,-1,-1,-1],"loss_changes":[3.5639822E6,1.843175E5,6.1695975E5,1.56425E4,1.8648328E4,2.7223812E4,1.29645E4,3.316625E3,1.7095781E3,1.6798008E3,5.024095E3,6.6269062E3,2.1238906E3,1.1034375E3,5.6075E2,0E0,0E0,0E0,0E0,1.0242969E2,2.3704688E2,9.158367E2,2.9217456E2,5.339531E2,7.0209375E2,0E0,0E0,0E0,0E0,0E0,0E0,0E0,0E0,0E0,0E0,0E0,0E0,0E0,0E0,0E0,0E0,0E0,0E0],"parents":[2147483647,0,0,1,1,2,2,3,3,4,4,5,5,6,6,7,7,8,8,9,9,10,10,11,11,12,12,13,13,14,14,19,19,20,20,21,21,22,22,23,23,24,24],"right_children":[2,4,6,8,10,12,14,16,18,20,22,24,26,28,30,-1,-1,-1,-1,32,34,36,38,40,42,-1,-1,-1,-1,-1,-1,-1,-1,-1,-1,-1,-1,-1,-1,-1,-1,-1,-1],"split_conditions":[7.34995E1,2.9519E1,1.22825E2,1.7088E1,4.7505E1,9.74905E1,1.59694E2,1.17615E1,2.3275E1,3.7808E1,5.8957E1,8.6541E1,1.1408E2,1.43998E2,1.69746E2,-1.6807524E0,-1.4830759E0,-1.3016601E0,-1.0377387E0,3.41385E1,4.24505E1,5.5527E1,6.75895E1,7.9844E1,9.2306E1,1.6306784E0,2.1377227E0,2.531143E0,3.3003242E0,3.6581967E0,4.1163864E0,-8.6014986E-1,-7.1358156E-1,-5.850065E-1,-4.1154334E-1,-2.663879E-1,1.6632607E-2,2.3237324E-1,4.90098E-1,6.611272E-1,8.842185E-1,1.1071026E0,1.3108362E0],"split_indices":[1,2,2,1,1,2,1,2,0,2,2,1,1,1,1,0,0,0,0,1,2,1,2,1,1,0,0,0,0,0,0,0,0,0,0,0,0,0,0,0,0,0,0],"split_type":[0,0,0,0,0,0,0,0,0,0,0,0,0,0,0,0,0,0,0,0,0,0,0,0,0,0,0,0,0,0,0,0,0,0,0,0,0,0,0,0,0,0,0],"sum_hessian":[3.157E3,2.059E3,1.098E3,1.516E3,5.43E2,6.16E2,4.82E2,1.147E3,3.69E2,3.33E2,2.1E2,4.8E2,1.36E2,1.6E2,3.22E2,6.78E2,4.69E2,2.46E2,1.23E2,1.61E2,1.72E2,1.6E2,5E1,1.72E2,3.08E2,7.4E1,6.2E1,2.5E1,1.35E2,1.97E2,1.25E2,7.4E1,8.7E1,1.35E2,3.7E1,1.23E2,3.7E1,2.5E1,2.5E1,6.1E1,1.11E2,1.6E2,1.48E2],"tree_param":{"num_deleted":"0","num_feature":"4","num_nodes":"43","size_leaf_vector":"1"}},{"base_weights":[2.607732E-2,-2.3500677E1,4.3334747E1,-2.8993612E1,-9.557348E0,2.3457869E1,6.917139E1,-3.1385727E1,-2.564341E1,-1.3874304E1,-2.5841317E0,1.9639772E1,3.4458164E1,2.8734756E0,7.200078E1,-1.6808184E0,-1.5240824E0,-1.3425316E0,-1.1028714E0,-1.7107782E1,-1.1816371E1,-5.4691243E0,3.1818423E0,1.4098143E1,2.2143074E1,1.4361037E0,1.95035E0,3.422678E0,3.8926873E0,-9.0685284E-1,-7.5082576E-1,-6.4280874E-1,-5.027556E-1,-3.1540647E-1,-2.0950337E-1,5.2316558E-2,3.705506E-1,5.5552465E-1,7.7474153E-1,9.9875337E-1,1.1936163E0],"categories":[],"categories_nodes":[],"categories_segments":[],"categories_sizes":[],"default_left":[0,0,0,0,0,0,0,0,0,0,0,0,0,0,0,0,0,0,0,0,0,0,0,0,0,0,0,0,0,0,0,0,0,0,0,0,0,0,0,0,0],"id":8,"left_children":[1,3,5,7,9,11,13,15,17,19,21,23,25,-1,27,-1,-1,-1,-1,29,31,33,35,37,39,-1,-1,-1,-1,-1,-1,-1,-1,-1,-1,-1,-1,-1,-1,-1,-1],"loss_changes":[3.2187438E6,1.5650225E5,5.694469E5,1.095975E4,1.7423926E4,2.5783375E4,1.185375E4,6.935625E2,2.0787812E3,2.1800703E3,3.726961E3,6.2078438E3,3.0805312E3,0E0,2.664E3,0E0,0E0,0E0,0E0,2.2535156E1,2.7729102E2,1.3346582E2,6.696035E2,4.4959375E2,7.303281E2,0E0,0E0,0E0,0E0,0E0,0E0,0E0,0E0,0E0,0E0,0E0,0E0,0E0,0E0,0E0,0E0],"parents":[2147483647,0,0,1,1,2,2,3,3,4,4,5,5,6,6,7,7,8,8,9,9,10,10,11,11,12,12,14,14,19,19,20,20,21,21,22,22,23,23,24,24],"right_children":[2,4,6,8,10,12,14,16,18,20,22,24,26,-1,28,-1,-1,-1,-1,30,32,34,36,38,40,-1,-1,-1,-1,-1,-1,-1,-1,-1,-1,-1,-1,-1,-1,-1,-1],"split_conditions":[6.95155E1,2.6984E1,1.242E2,1.34615E1,4.4375E1,9.5525E1,1.515025E2,8.6025E0,1.9737E1,3.5362E1,5.48905E1,8.255E1,1.088395E2,2.8734756E0,1.68985E2,-1.6808184E0,-1.5240824E0,-1.3425316E0,-1.1028714E0,3.17635E1,3.9072E1,4.9534E1,6.46975E1,7.59155E1,8.88695E1,1.4361037E0,1.95035E0,3.422678E0,3.8926873E0,-9.0685284E-1,-7.5082576E-1,-6.4280874E-1,-5.027556E-1,-3.1540647E-1,-2.0950337E-1,5.2316558E-2,3.705506E-1,5.5552465E-1,7.7474153E-1,9.9875337E-1,1.1936163E0],"split_indices":[2,2,0,2,0,2,2,1,1,1,0,2,1,0,1,0,0,0,0,2,2,1,0,2,2,0,0,0,0,0,0,0,0,0,0,0,0,0,0,0,0],"split_type":[0,0,0,0,0,0,0,0,0,0,0,0,0,0,0,0,0,0,0,0,0,0,0,0,0,0,0,0,0,0,0,0,0,0,0,0,0,0,0,0,0],"sum_hessian":[3.157E3,2.046E3,1.111E3,1.467E3,5.79E2,6.29E2,4.82E2,8.51E2,6.16E2,3.57E2,2.22E2,4.69E2,1.6E2,9.8E1,3.84E2,2.35E2,6.16E2,4.56E2,1.6E2,1.36E2,2.21E2,1.48E2,7.4E1,1.48E2,3.21E2,7.4E1,8.6E1,2.47E2,1.37E2,8.6E1,5E1,1.35E2,8.6E1,8.7E1,6.1E1,5E1,2.4E1,5E1,9.8E1,1.48E2,1.73E2],"tree_param":{"num_deleted":"0","num_feature":"4","num_nodes":"41","size_leaf_vector":"1"}},{"base_weights":[2.7478416E-2,-2.2128944E1,4.1558147E1,-2.7154623E1,-7.606504E0,2.2972363E1,6.629042E1,-2.8883091E1,-2.1677053E1,-1.1819502E1,-1.1611063E0,1.9862293E1,3.7151318E1,6.1961758E1,3.6266541E0,-1.523291E0,-1.3434807E0,-1.1637444E0,-9.173158E-1,-1.3389193E1,-9.217743E0,-4.0245714E0,5.629646E0,1.5553797E1,2.301591E1,1.6198105E0,2.023178E0,2.5798516E0,3.1650028E0,-7.3933274E-1,-6.092059E-1,-4.8685127E-1,-3.4429738E-1,-2.5222602E-1,-4.5624774E-2,1.04789734E-1,3.949698E-1,6.322539E-1,8.650078E-1,1.0609304E0,1.2676159E0],"categories":[],"categories_nodes":[],"categories_segments":[],"categories_sizes":[],"default_left":[0,0,0,0,0,0,0,0,0,0,0,0,0,0,0,0,0,0,0,0,0,0,0,0,0,0,0,0,0,0,0,0,0,0,0,0,0,0,0,0,0],"id":9,"left_children":[1,3,5,7,9,11,13,15,17,19,21,23,25,27,-1,-1,-1,-1,-1,29,31,33,35,37,39,-1,-1,-1,-1,-1,-1,-1,-1,-1,-1,-1,-1,-1,-1,-1,-1],"loss_changes":[2.9068198E6,1.5014281E5,5.0365288E5,1.38595E4,1.4405289E4,2.6999406E4,8.23325E3,2.878125E3,1.5474375E3,1.1875352E3,4.1255693E3,6.6802656E3,4.5315625E2,6.8725E2,0E0,0E0,0E0,0E0,0E0,1.5327734E2,8.309863E1,4.6834692E2,4.8876477E2,9.0891797E2,7.0921875E2,0E0,0E0,0E0,0E0,0E0,0E0,0E0,0E0,0E0,0E0,0E0,0E0,0E0,0E0,0E0,0E0],"parents":[2147483647,0,0,1,1,2,2,3,3,4,4,5,5,6,6,7,7,8,8,9,9,10,10,11,11,12,12,13,13,19,19,20,20,21,21,22,22,23,23,24,24],"right_children":[2,4,6,8,10,12,14,16,18,20,22,24,26,28,-1,-1,-1,-1,-1,30,32,34,36,38,40,-1,-1,-1,-1,-1,-1,-1,-1,-1,-1,-1,-1,-1,-1,-1,-1],"split_conditions":[7.34995E1,3.02605E1,1.32375E2,1.73415E1,4.7505E1,1.0488E2,1.63218E2,1.17185E1,2.5465E1,3.9123E1,5.88965E1,8.7068E1,1.129095E2,1.516E2,3.6266541E0,-1.523291E0,-1.3434807E0,-1.1637444E0,-9.173158E-1,3.592E1,4.4375E1,5.0219E1,6.5288E1,7.98945E1,9.3225E1,1.6198105E0,2.023178E0,2.5798516E0,3.1650028E0,-7.3933274E-1,-6.092059E-1,-4.8685127E-1,-3.4429738E-1,-2.5222602E-1,-4.5624774E-2,1.04789734E-1,3.949698E-1,6.322539E-1,8.650078E-1,1.0609304E0,1.2676159E0],"split_indices":[1,2,0,1,1,1,2,1,1,1,1,2,2,1,0,0,0,0,0,1,0,2,1,2,2,0,0,0,0,0,0,0,0,0,0,0,0,0,0,0,0],"split_type":[0,0,0,0,0,0,0,0,0,0,0,0,0,0,0,0,0,0,0,0,0,0,0,0,0,0,0,0,0,0,0,0,0,0,0,0,0,0,0,0,0],"sum_hessian":[3.157E3,2.059E3,1.098E3,1.529E3,5.3E2,6.28E2,4.7E2,1.159E3,3.7E2,3.2E2,2.1E2,5.17E2,1.11E2,2.84E2,1.86E2,6.41E2,5.18E2,2.46E2,1.24E2,1.97E2,1.23E2,1.48E2,6.2E1,2.21E2,2.96E2,5E1,6.1E1,3.7E1,2.47E2,8.6E1,1.11E2,9.8E1,2.5E1,1.11E2,3.7E1,2.5E1,3.7E1,8.6E1,1.35E2,1.73E2,1.23E2],"tree_param":{"num_deleted":"0","num_feature":"4","num_nodes":"41","size_leaf_vector":"1"}},{"base_weights":[2.9244563E-2,-2.085069E1,3.9829792E1,-2.5800125E1,-6.8663726E0,2.2080462E1,6.2996475E1,-2.7624834E1,-2.111345E1,-9.59152E0,3.7062178E0,1.910558E1,3.532341E1,5.9282665E1,3.4825141E0,-1.4593961E0,-1.2986724E0,-1.1318032E0,-8.829244E-1,-1.1890155E1,-5.648538E0,2.9964805E-1,7.9243712E0,1.5298174E1,2.2027924E1,1.5792695E0,1.9663423E0,2.525195E0,3.0371442E0,-6.7824095E-1,-5.208338E-1,-3.5945606E-1,-2.3184457E-1,-7.208996E-2,7.4163966E-2,2.4959472E-1,4.3595257E-1,6.6050524E-1,8.6248267E-1,1.0213792E0,1.2151599E0],"categories":[],"categories_nodes":[],"categories_segments":[],"categories_sizes":[],"default_left":[0,0,0,0,0,0,0,0,0,0,0,0,0,0,0,0,0,0,0,0,0,0,0,0,0,0,0,0,0,0,0,0,0,0,0,0,0,0,0,0,0],"id":10,"left_children":[1,3,5,7,9,11,13,15,17,19,21,23,25,27,-1,-1,-1,-1,-1,29,31,33,35,37,39,-1,-1,-1,-1,-1,-1,-1,-1,-1,-1,-1,-1,-1,-1,-1,-1],"loss_changes":[2.6252322E6,1.4323519E5,4.45576E5,1.25010625E4,1.5680393E4,2.3632562E4,7.50975E3,2.0760625E3,1.878125E3,3.8482617E3,1.6070023E3,5.293047E3,4.3392188E2,8.93375E2,0E0,0E0,0E0,0E0,0E0,5.298789E2,2.1758789E2,1.3199615E2,7.299414E1,6.808164E2,5.376406E2,0E0,0E0,0E0,0E0,0E0,0E0,0E0,0E0,0E0,0E0,0E0,0E0,0E0,0E0,0E0,0E0],"parents":[2147483647,0,0,1,1,2,2,3,3,4,4,5,5,6,6,7,7,8,8,9,9,10,10,11,11,12,12,13,13,19,19,20,20,21,21,22,22,23,23,24,24],"right_children":[2,4,6,8,10,12,14,16,18,20,22,24,26,28,-1,-1,-1,-1,-1,30,32,34,36,38,40,-1,-1,-1,-1,-1,-1,-1,-1,-1,-1,-1,-1,-1,-1,-1,-1],"split_conditions":[7.30465E1,3.02605E1,1.3484E2,1.6125E1,5.13015E1,1.0488E2,1.67735E2,1.0676E1,2.3829E1,4.25445E1,6.46975E1,8.92E1,1.15801E2,1.4825E2,3.4825141E0,-1.4593961E0,-1.2986724E0,-1.1318032E0,-8.829244E-1,3.69015E1,4.806E1,5.6995E1,6.75895E1,8.38305E1,9.55265E1,1.5792695E0,1.9663423E0,2.525195E0,3.0371442E0,-6.7824095E-1,-5.208338E-1,-3.5945606E-1,-2.3184457E-1,-7.208996E-2,7.4163966E-2,2.4959472E-1,4.3595257E-1,6.6050524E-1,8.6248267E-1,1.0213792E0,1.2151599E0],"split_indices":[2,2,1,2,1,1,1,2,1,1,0,1,2,2,0,0,0,0,0,2,1,1,2,1,1,0,0,0,0,0,0,0,0,0,0,0,0,0,0,0,0],"split_type":[0,0,0,0,0,0,0,0,0,0,0,0,0,0,0,0,0,0,0,0,0,0,0,0,0,0,0,0,0,0,0,0,0,0,0,0,0,0,0,0,0],"sum_hessian":[3.157E3,2.071E3,1.086E3,1.529E3,5.42E2,6.16E2,4.7E2,1.097E3,4.32E2,4.31E2,1.11E2,5.05E2,1.11E2,3.08E2,1.62E2,5.55E2,5.42E2,2.96E2,1.36E2,2.71E2,1.6E2,6.2E1,4.9E1,2.22E2,2.83E2,6.2E1,4.9E1,4.9E1,2.59E2,1.23E2,1.48E2,6.1E1,9.9E1,2.5E1,3.7E1,1.2E1,3.7E1,1.11E2,1.11E2,1.72E2,1.11E2],"tree_param":{"num_deleted":"0","num_feature":"4","num_nodes":"41","size_leaf_vector":"1"}},{"base_weights":[3.1098899E-2,-1.9810991E1,3.7853344E1,-2.4513464E1,-6.5244503E0,2.098732E1,5.986711E1,-2.6042566E1,-1.9453236E1,-9.116005E0,3.5298004E0,1.8156305E1,3.3590054E1,2.7498908E0,3.222136E0,-2.7392126E1,-1.2023426E0,-1.0453856E0,-8.2815963E-1,-1.1434742E1,-5.5785046E0,2.870855E-1,7.5450253E0,1.4343826E1,2.0790865E1,1.5021323E0,1.8693994E0,-1.4612964E0,-1.329898E0,-6.5241104E-1,-5.0725913E-1,-3.6696693E-1,-2.2769748E-1,-6.829014E-2,7.052271E-2,2.3868279E-1,4.147286E-1,6.0229075E-1,7.9202324E-1,9.434852E-1,1.1286244E0],"categories":[],"categories_nodes":[],"categories_segments":[],"categories_sizes":[],"default_left":[0,0,0,0,0,0,0,0,0,0,0,0,0,0,0,0,0,0,0,0,0,0,0,0,0,0,0,0,0,0,0,0,0,0,0,0,0,0,0,0,0],"id":11,"left_children":[1,3,5,7,9,11,13,15,17,19,21,23,25,-1,-1,27,-1,-1,-1,29,31,33,35,37,39,-1,-1,-1,-1,-1,-1,-1,-1,-1,-1,-1,-1,-1,-1,-1,-1],"loss_changes":[2.370742E6,1.2929775E5,4.0233E5,1.1332E4,1.4180662E4,2.1403812E4,6.94975E3,2.4979375E3,1.16275E3,3.479711E3,1.4560997E3,4.7841406E3,3.8572656E2,0E0,0E0,2.3040625E2,0E0,0E0,0E0,4.0859375E2,2.7868164E2,1.1890497E2,6.426807E1,5.314414E2,5.90625E2,0E0,0E0,0E0,0E0,0E0,0E0,0E0,0E0,0E0,0E0,0E0,0E0,0E0,0E0,0E0,0E0],"parents":[2147483647,0,0,1,1,2,2,3,3,4,4,5,5,6,6,7,7,8,8,9,9,10,10,11,11,12,12,15,15,19,19,20,20,21,21,22,22,23,23,24,24],"right_children":[2,4,6,8,10,12,14,16,18,20,22,24,26,-1,-1,28,-1,-1,-1,30,32,34,36,38,40,-1,-1,-1,-1,-1,-1,-1,-1,-1,-1,-1,-1,-1,-1,-1,-1],"split_conditions":[7.30465E1,3.1044E1,1.31591E2,1.7202E1,5.0219E1,1.016E2,1.6025E2,1.22885E1,2.48825E1,4.2192E1,6.5288E1,8.7068E1,1.15801E2,2.7498908E0,3.222136E0,8.06E0,-1.2023426E0,-1.0453856E0,-8.2815963E-1,3.62995E1,4.7505E1,5.6508E1,6.75895E1,8.23365E1,9.2282E1,1.5021323E0,1.8693994E0,-1.4612964E0,-1.329898E0,-6.5241104E-1,-5.0725913E-1,-3.6696693E-1,-2.2769748E-1,-6.829014E-2,7.052271E-2,2.3868279E-1,4.147286E-1,6.0229075E-1,7.9202324E-1,9.434852E-1,1.1286244E0],"split_indices":[2,1,2,2,2,2,2,1,0,1,1,2,2,0,0,1,0,0,0,2,1,0,2,1,2,0,0,0,0,0,0,0,0,0,0,0,0,0,0,0,0],"split_type":[0,0,0,0,0,0,0,0,0,0,0,0,0,0,0,0,0,0,0,0,0,0,0,0,0,0,0,0,0,0,0,0,0,0,0,0,0,0,0,0,0],"sum_hessian":[3.157E3,2.071E3,1.086E3,1.529E3,5.42E2,6.16E2,4.7E2,1.171E3,3.58E2,4.31E2,1.11E2,5.05E2,1.11E2,2.34E2,2.36E2,6.91E2,4.8E2,2.34E2,1.24E2,2.59E2,1.72E2,6.2E1,4.9E1,2.09E2,2.96E2,6.2E1,4.9E1,1.98E2,4.93E2,1.11E2,1.48E2,6.1E1,1.11E2,2.5E1,3.7E1,1.2E1,3.7E1,8.6E1,1.23E2,1.48E2,1.48E2],"tree_param":{"num_deleted":"0","num_feature":"4","num_nodes":"41","size_leaf_vector":"1"}},{"base_weights":[3.139502E-2,-1.8823952E1,3.5972744E1,-2.3291744E1,-6.20048E0,1.9947641E1,5.6888916E1,-2.5007694E1,-1.9208107E1,-8.663866E0,3.3565147E0,1.7081059E1,3.1206871E1,5.3485085E1,3.1496282E0,-1.3286397E0,-1.1846693E0,-1.0270753E0,-7.9718304E-1,-1.06193075E1,-4.8785706E0,2.7277082E-1,7.174902E0,1.3054408E1,1.9210518E1,1.3582027E0,1.740578E0,2.1985126E0,2.7308862E0,-6.0637826E-1,-4.5856863E-1,-2.9777318E-1,-2.021338E-1,-4.0889483E-2,9.280879E-2,2.277056E-1,3.9413375E-1,5.464248E-1,7.066838E-1,8.757996E-1,1.0524529E0],"categories":[],"categories_nodes":[],"categories_segments":[],"categories_sizes":[],"default_left":[0,0,0,0,0,0,0,0,0,0,0,0,0,0,0,0,0,0,0,0,0,0,0,0,0,0,0,0,0,0,0,0,0,0,0,0,0,0,0,0,0],"id":12,"left_children":[1,3,5,7,9,11,13,15,17,19,21,23,25,27,-1,-1,-1,-1,-1,29,31,33,35,37,39,-1,-1,-1,-1,-1,-1,-1,-1,-1,-1,-1,-1,-1,-1,-1,-1],"loss_changes":[2.1408115E6,1.16714375E5,3.6321E5,1.0240875E4,1.2812697E4,1.9380938E4,6.41625E3,1.5796875E3,1.6617188E3,3.1458242E3,1.3168348E3,3.9850625E3,8.614375E2,9.285E2,0E0,0E0,0E0,0E0,0E0,5.0898828E2,1.1004932E2,1.103063E2,5.6847656E1,2.4477148E2,6.313672E2,0E0,0E0,0E0,0E0,0E0,0E0,0E0,0E0,0E0,0E0,0E0,0E0,0E0,0E0,0E0,0E0],"parents":[2147483647,0,0,1,1,2,2,3,3,4,4,5,5,6,6,7,7,8,8,9,9,10,10,11,11,12,12,13,13,19,19,20,20,21,21,22,22,23,23,24,24],"right_children":[2,4,6,8,10,12,14,16,18,20,22,24,26,28,-1,-1,-1,-1,-1,30,32,34,36,38,40,-1,-1,-1,-1,-1,-1,-1,-1,-1,-1,-1,-1,-1,-1,-1,-1],"split_conditions":[7.56735E1,3.02605E1,1.3484E2,1.6258E1,5.13015E1,1.000775E2,1.67735E2,1.012E1,2.3275E1,4.27845E1,6.46975E1,8.54435E1,1.129095E2,1.45369E2,3.1496282E0,-1.3286397E0,-1.1846693E0,-1.0270753E0,-7.9718304E-1,3.79925E1,4.8446E1,5.80135E1,6.75895E1,7.9335E1,9.34885E1,1.3582027E0,1.740578E0,2.1985126E0,2.7308862E0,-6.0637826E-1,-4.5856863E-1,-2.9777318E-1,-2.021338E-1,-4.0889483E-2,9.280879E-2,2.277056E-1,3.9413375E-1,5.464248E-1,7.066838E-1,8.757996E-1,1.0524529E0],"split_indices":[1,2,1,1,1,2,1,1,0,1,0,2,2,2,0,0,0,0,0,1,1,2,2,2,1,0,0,0,0,0,0,0,0,0,0,0,0,0,0,0,0],"split_type":[0,0,0,0,0,0,0,0,0,0,0,0,0,0,0,0,0,0,0,0,0,0,0,0,0,0,0,0,0,0,0,0,0,0,0,0,0,0,0,0,0],"sum_hessian":[3.157E3,2.071E3,1.086E3,1.529E3,5.42E2,6.16E2,4.7E2,1.073E3,4.56E2,4.31E2,1.11E2,4.93E2,1.23E2,3.08E2,1.62E2,4.81E2,5.92E2,3.2E2,1.36E2,2.83E2,1.48E2,6.2E1,4.9E1,1.73E2,3.2E2,6.2E1,6.1E1,3.7E1,2.71E2,1.35E2,1.48E2,6.2E1,8.6E1,3.7E1,2.5E1,1.2E1,3.7E1,6.2E1,1.11E2,1.72E2,1.48E2],"tree_param":{"num_deleted":"0","num_feature":"4","num_nodes":"41","size_leaf_vector":"1"}},{"base_weights":[3.271669E-2,-1.8200636E1,3.359714E1,-2.2517069E1,-7.553799E0,1.784664E1,5.319353E1,-2.4442408E1,-2.0037836E1,-1.088237E1,-1.9971848E0,1.5200582E1,2.607349E1,4.333428E1,5.5897903E1,-1.3187598E0,-1.1863964E0,-1.052885E0,-8.822258E-1,-1.3404776E1,-9.140385E0,-4.2469726E0,2.4990222E0,1.0891014E1,1.7147552E1,1.1202248E0,1.4697421E0,1.8349122E0,2.3078187E0,2.6846416E0,3.1314168E0,-7.084746E-1,-5.828745E-1,-4.9880147E-1,-3.8645133E-1,-2.459536E-1,-1.6122626E-1,4.341043E-2,2.8629607E-1,4.2607704E-1,6.000821E-1,7.791946E-1,9.297857E-1],"categories":[],"categories_nodes":[],"categories_segments":[],"categories_sizes":[],"default_left":[0,0,0,0,0,0,0,0,0,0,0,0,0,0,0,0,0,0,0,0,0,0,0,0,0,0,0,0,0,0,0,0,0,0,0,0,0,0,0,0,0,0,0],"id":13,"left_children":[1,3,5,7,9,11,13,15,17,19,21,23,25,27,29,-1,-1,-1,-1,31,33,35,37,39,41,-1,-1,-1,-1,-1,-1,-1,-1,-1,-1,-1,-1,-1,-1,-1,-1,-1,-1],"loss_changes":[1.9332821E6,9.390256E4,3.4227288E5,6.4601875E3,1.0927652E4,1.3056734E4,1.0775875E4,4.99625E2,1.1954688E3,1.5032578E3,2.266372E3,3.7568281E3,1.1571406E3,3.8492188E2,2.351125E3,0E0,0E0,0E0,0E0,3.3908203E1,1.847207E2,8.652881E1,3.89714E2,2.8983594E2,4.3935938E2,0E0,0E0,0E0,0E0,0E0,0E0,0E0,0E0,0E0,0E0,0E0,0E0,0E0,0E0,0E0,0E0,0E0,0E0],"parents":[2147483647,0,0,1,1,2,2,3,3,4,4,5,5,6,6,7,7,8,8,9,9,10,10,11,11,12,12,13,13,14,14,19,19,20,20,21,21,22,22,23,23,24,24],"right_children":[2,4,6,8,10,12,14,16,18,20,22,24,26,28,30,-1,-1,-1,-1,32,34,36,38,40,42,-1,-1,-1,-1,-1,-1,-1,-1,-1,-1,-1,-1,-1,-1,-1,-1,-1,-1],"split_conditions":[7.2603E1,2.65135E1,1.238465E2,1.31765E1,4.4375E1,9.5525E1,1.5625E2,8.2895E0,1.86575E1,3.49005E1,5.5527E1,8.255E1,1.044E2,1.43998E2,1.689E2,-1.3187598E0,-1.1863964E0,-1.052885E0,-8.822258E-1,3.17635E1,3.99E1,4.9534E1,6.5288E1,7.59155E1,9.11875E1,1.1202248E0,1.4697421E0,1.8349122E0,2.3078187E0,2.6846416E0,3.1314168E0,-7.084746E-1,-5.828745E-1,-4.9880147E-1,-3.8645133E-1,-2.459536E-1,-1.6122626E-1,4.341043E-2,2.8629607E-1,4.2607704E-1,6.000821E-1,7.791946E-1,9.297857E-1],"split_indices":[1,2,1,2,0,2,1,1,2,0,1,2,2,1,2,0,0,0,0,2,1,1,1,2,1,0,0,0,0,0,0,0,0,0,0,0,0,0,0,0,0,0,0],"split_type":[0,0,0,0,0,0,0,0,0,0,0,0,0,0,0,0,0,0,0,0,0,0,0,0,0,0,0,0,0,0,0,0,0,0,0,0,0,0,0,0,0,0,0],"sum_hessian":[3.157E3,2.046E3,1.111E3,1.455E3,5.91E2,6.17E2,4.94E2,8.14E2,6.41E2,3.69E2,2.22E2,4.69E2,1.48E2,1.1E2,3.84E2,2.1E2,6.04E2,4.44E2,1.97E2,1.48E2,2.21E2,1.48E2,7.4E1,1.48E2,3.21E2,7.4E1,7.4E1,3.7E1,7.3E1,2.96E2,8.8E1,9.8E1,5E1,1.35E2,8.6E1,8.7E1,6.1E1,5E1,2.4E1,5E1,9.8E1,1.6E2,1.61E2],"tree_param":{"num_deleted":"0","num_feature":"4","num_nodes":"43","size_leaf_vector":"1"}},{"base_weights":[3.380101E-2,-1.6994669E1,3.2492825E1,-2.0967562E1,-5.425568E0,1.8021423E1,5.1381065E1,-2.2346098E1,-1.6556204E1,-7.516126E0,3.6598969E0,1.5424422E1,2.8222204E1,2.318984E0,5.4807682E1,-2.3494745E1,-1.0287129E0,-8.956894E-1,-7.053328E-1,-9.314789E0,-4.037358E0,8.227374E-1,6.480602E0,1.1775936E1,1.7354055E1,1.2268494E0,1.5755832E0,2.622743E0,3.0123606E0,-1.2611121E0,-1.1415187E0,-5.162825E-1,-3.8231403E-1,-2.4041739E-1,-1.6062683E-1,9.409583E-3,1.2431544E-1,2.0449571E-1,3.5639632E-1,4.9269816E-1,6.3759524E-1,7.8519213E-1,9.448239E-1],"categories":[],"categories_nodes":[],"categories_segments":[],"categories_sizes":[],"default_left":[0,0,0,0,0,0,0,0,0,0,0,0,0,0,0,0,0,0,0,0,0,0,0,0,0,0,0,0,0,0,0,0,0,0,0,0,0,0,0,0,0,0,0],"id":14,"left_children":[1,3,5,7,9,11,13,15,17,19,21,23,25,-1,27,29,-1,-1,-1,31,33,35,37,39,41,-1,-1,-1,-1,-1,-1,-1,-1,-1,-1,-1,-1,-1,-1,-1,-1,-1,-1],"loss_changes":[1.7460659E6,9.5121125E4,2.9619375E5,9.0073125E3,1.0113158E4,1.5909906E4,5.53E3,1.9018125E3,9.8103906E2,2.6654746E3,7.9494714E2,3.2735234E3,7.2997656E2,0E0,3.465E2,2.3215625E2,0E0,0E0,0E0,4.0004883E2,7.93064E1,5.3368317E1,4.8225098E1,2.0072852E2,5.203047E2,0E0,0E0,0E0,0E0,0E0,0E0,0E0,0E0,0E0,0E0,0E0,0E0,0E0,0E0,0E0,0E0,0E0,0E0],"parents":[2147483647,0,0,1,1,2,2,3,3,4,4,5,5,6,6,7,7,8,8,9,9,10,10,11,11,12,12,14,14,15,15,19,19,20,20,21,21,22,22,23,23,24,24],"right_children":[2,4,6,8,10,12,14,16,18,20,22,24,26,-1,28,30,-1,-1,-1,32,34,36,38,40,42,-1,-1,-1,-1,-1,-1,-1,-1,-1,-1,-1,-1,-1,-1,-1,-1,-1,-1],"split_conditions":[7.30465E1,3.15E1,1.3484E2,1.7741E1,5.5527E1,1.0179E2,1.58253E2,1.2465E1,2.5465E1,4.4375E1,6.36695E1,8.73915E1,1.129095E2,2.318984E0,1.700185E2,7.617E0,-1.0287129E0,-8.956894E-1,-7.053328E-1,3.83095E1,4.8373E1,5.8957E1,6.75895E1,8.0724E1,9.10365E1,1.2268494E0,1.5755832E0,2.622743E0,3.0123606E0,-1.2611121E0,-1.1415187E0,-5.162825E-1,-3.8231403E-1,-2.4041739E-1,-1.6062683E-1,9.409583E-3,1.2431544E-1,2.0449571E-1,3.5639632E-1,4.9269816E-1,6.3759524E-1,7.8519213E-1,9.448239E-1],"split_indices":[2,1,1,1,1,1,2,1,1,0,2,1,2,0,2,2,0,0,0,2,2,2,2,1,2,0,0,0,0,0,0,0,0,0,0,0,0,0,0,0,0,0,0],"split_type":[0,0,0,0,0,0,0,0,0,0,0,0,0,0,0,0,0,0,0,0,0,0,0,0,0,0,0,0,0,0,0,0,0,0,0,0,0,0,0,0,0,0,0],"sum_hessian":[3.157E3,2.071E3,1.086E3,1.541E3,5.3E2,6.16E2,4.7E2,1.171E3,3.7E2,4.31E2,9.9E1,4.93E2,1.23E2,1.97E2,2.73E2,7.03E2,4.68E2,2.34E2,1.36E2,2.83E2,1.48E2,5E1,4.9E1,1.73E2,3.2E2,6.2E1,6.1E1,1.98E2,7.5E1,1.85E2,5.18E2,1.73E2,1.1E2,7.4E1,7.4E1,3.7E1,1.3E1,1.2E1,3.7E1,6.2E1,1.11E2,1.6E2,1.6E2],"tree_param":{"num_deleted":"0","num_feature":"4","num_nodes":"43","size_leaf_vector":"1"}},{"base_weights":[3.4637544E-2,-1.6147781E1,3.0880947E1,-1.9922655E1,-5.15531E0,1.6497902E1,4.804916E1,-2.1201492E1,-1.5633983E1,-7.289865E0,2.895301E0,1.4091284E1,2.357473E1,3.906415E1,5.051484E1,-2.2323902E1,-9.759068E-1,-8.4683704E-1,-6.7044145E-1,-8.959387E0,-4.1932225E0,2.5545526E-1,6.163601E0,1.0782206E1,1.5703948E1,1.0131235E0,1.3286331E0,1.6561584E0,2.0793517E0,2.4254115E0,2.8321736E0,-1.1984497E0,-1.084566E0,-5.003817E-1,-3.8137728E-1,-2.6627138E-1,-1.792594E-1,-3.5418432E-2,8.271479E-2,1.9524907E-1,3.3870432E-1,4.3407723E-1,5.6993306E-1,7.1468776E-1,8.395438E-1],"categories":[],"categories_nodes":[],"categories_segments":[],"categories_sizes":[],"default_left":[0,0,0,0,0,0,0,0,0,0,0,0,0,0,0,0,0,0,0,0,0,0,0,0,0,0,0,0,0,0,0,0,0,0,0,0,0,0,0,0,0,0,0,0,0],"id":15,"left_children":[1,3,5,7,9,11,13,15,17,19,21,23,25,27,29,31,-1,-1,-1,33,35,37,39,41,43,-1,-1,-1,-1,-1,-1,-1,-1,-1,-1,-1,-1,-1,-1,-1,-1,-1,-1,-1,-1],"loss_changes":[1.576871E6,8.5875375E4,2.676215E5,8.1256875E3,9.146062E3,9.767328E3,8.992875E3,1.8031875E3,8.106719E2,2.133795E3,9.6474E2,2.2053906E3,9.411328E2,2.8620312E2,1.987E3,2.126875E2,0E0,0E0,0E0,3.0340625E2,8.348193E1,8.611071E1,4.2490112E1,9.399219E1,2.1522656E2,0E0,0E0,0E0,0E0,0E0,0E0,0E0,0E0,0E0,0E0,0E0,0E0,0E0,0E0,0E0,0E0,0E0,0E0,0E0,0E0],"parents":[2147483647,0,0,1,1,2,2,3,3,4,4,5,5,6,6,7,7,8,8,9,9,10,10,11,11,12,12,13,13,14,14,15,15,19,19,20,20,21,21,22,22,23,23,24,24],"right_children":[2,4,6,8,10,12,14,16,18,20,22,24,26,28,30,32,-1,-1,-1,34,36,38,40,42,44,-1,-1,-1,-1,-1,-1,-1,-1,-1,-1,-1,-1,-1,-1,-1,-1,-1,-1,-1,-1],"split_conditions":[7.56735E1,3.10155E1,1.238465E2,1.747E1,5.0219E1,9.5525E1,1.515025E2,1.2165E1,2.5465E1,4.24505E1,6.46975E1,8.40295E1,1.088395E2,1.43998E2,1.72587E2,7.8315E0,-9.759068E-1,-8.4683704E-1,-6.7044145E-1,3.84945E1,4.806E1,5.88965E1,6.75895E1,7.7609E1,8.9364E1,1.0131235E0,1.3286331E0,1.6561584E0,2.0793517E0,2.4254115E0,2.8321736E0,-1.1984497E0,-1.084566E0,-5.003817E-1,-3.8137728E-1,-2.6627138E-1,-1.792594E-1,-3.5418432E-2,8.271479E-2,1.9524907E-1,3.3870432E-1,4.3407723E-1,5.6993306E-1,7.1468776E-1,8.395438E-1],"split_indices":[1,2,1,2,2,2,2,2,1,2,0,2,1,1,1,1,0,0,0,1,1,1,2,2,2,0,0,0,0,0,0,0,0,0,0,0,0,0,0,0,0,0,0,0,0],"split_type":[0,0,0,0,0,0,0,0,0,0,0,0,0,0,0,0,0,0,0,0,0,0,0,0,0,0,0,0,0,0,0,0,0,0,0,0,0,0,0,0,0,0,0,0,0],"sum_hessian":[3.157E3,2.071E3,1.086E3,1.541E3,5.3E2,5.92E2,4.94E2,1.184E3,3.57E2,4.19E2,1.11E2,4.44E2,1.48E2,1.1E2,3.84E2,7.03E2,4.81E2,2.21E2,1.36E2,2.71E2,1.48E2,6.2E1,4.9E1,1.48E2,2.96E2,7.4E1,7.4E1,3.7E1,7.3E1,2.96E2,8.8E1,1.85E2,5.18E2,1.48E2,1.23E2,4.9E1,9.9E1,3.7E1,2.5E1,1.2E1,3.7E1,3.7E1,1.11E2,1.35E2,1.61E2],"tree_param":{"num_deleted":"0","num_feature":"4","num_nodes":"45","size_leaf_vector":"1"}},{"base_weights":[3.555558E-2,-1.5613723E1,2.8843142E1,-1.9264538E1,-6.3464622E0,1.532276E1,4.5664867E1,-2.0787102E1,-1.6815428E1,-9.214184E0,-1.7142161E0,1.2910736E1,2.2032463E1,3.712303E1,4.800897E1,-1.1088585E0,-9.989767E-1,-8.8082325E-1,-7.222307E-1,-5.702992E-1,-7.8200817E0,-3.652312E0,2.1589906E0,9.33633E0,1.4592535E1,9.7123003E-1,1.2911104E0,1.5755298E0,1.9751714E0,2.3131316E0,2.725024E0,-4.2689845E-1,-3.3039907E-1,-2.1189237E-1,-1.3811608E-1,3.8264234E-2,2.4578956E-1,3.6579195E-1,5.141442E-1,6.637872E-1,7.8602713E-1],"categories":[],"categories_nodes":[],"categories_segments":[],"categories_sizes":[],"default_left":[0,0,0,0,0,0,0,0,0,0,0,0,0,0,0,0,0,0,0,0,0,0,0,0,0,0,0,0,0,0,0,0,0,0,0,0,0,0,0,0,0],"id":16,"left_children":[1,3,5,7,9,11,13,15,17,19,21,23,25,27,29,-1,-1,-1,-1,-1,31,33,35,37,39,-1,-1,-1,-1,-1,-1,-1,-1,-1,-1,-1,-1,-1,-1,-1,-1],"loss_changes":[1.4241334E6,6.9134E4,2.5220919E5,5.1245625E3,7.68892E3,9.717234E3,8.1291875E3,5.6834375E2,8.242344E2,1.004709E3,1.6818674E3,2.6109922E3,1.0994766E3,2.3817188E2,1.843125E3,0E0,0E0,0E0,0E0,0E0,1.367539E2,6.594092E1,2.8440073E2,2.0973438E2,2.5026562E2,0E0,0E0,0E0,0E0,0E0,0E0,0E0,0E0,0E0,0E0,0E0,0E0,0E0,0E0,0E0,0E0],"parents":[2147483647,0,0,1,1,2,2,3,3,4,4,5,5,6,6,7,7,8,8,9,9,10,10,11,11,12,12,13,13,14,14,20,20,21,21,22,22,23,23,24,24],"right_children":[2,4,6,8,10,12,14,16,18,20,22,24,26,28,30,-1,-1,-1,-1,-1,32,34,36,38,40,-1,-1,-1,-1,-1,-1,-1,-1,-1,-1,-1,-1,-1,-1,-1,-1],"split_conditions":[6.95155E1,2.7762E1,1.238465E2,1.4325E1,4.4375E1,9.5017E1,1.5625E2,9.1805E0,1.9683E1,3.5362E1,5.48905E1,8.255E1,1.0691E2,1.43998E2,1.73629E2,-1.1088585E0,-9.989767E-1,-8.8082325E-1,-7.222307E-1,-5.702992E-1,3.99E1,4.8776E1,6.36695E1,7.59155E1,8.88695E1,9.7123003E-1,1.2911104E0,1.5755298E0,1.9751714E0,2.3131316E0,2.725024E0,-4.2689845E-1,-3.3039907E-1,-2.1189237E-1,-1.3811608E-1,3.8264234E-2,2.4578956E-1,3.6579195E-1,5.141442E-1,6.637872E-1,7.8602713E-1],"split_indices":[2,1,1,2,0,2,1,1,2,1,0,2,2,1,1,0,0,0,0,0,1,2,2,2,2,0,0,0,0,0,0,0,0,0,0,0,0,0,0,0,0],"split_type":[0,0,0,0,0,0,0,0,0,0,0,0,0,0,0,0,0,0,0,0,0,0,0,0,0,0,0,0,0,0,0,0,0,0,0,0,0,0,0,0,0],"sum_hessian":[3.157E3,2.046E3,1.111E3,1.467E3,5.79E2,6.17E2,4.94E2,9E2,5.67E2,3.57E2,2.22E2,4.56E2,1.61E2,1.1E2,3.84E2,3.21E2,5.79E2,4.19E2,1.48E2,1.36E2,2.21E2,1.48E2,7.4E1,1.48E2,3.08E2,9.9E1,6.2E1,3.7E1,7.3E1,3.09E2,7.5E1,1.35E2,8.6E1,8.7E1,6.1E1,5E1,2.4E1,5E1,9.8E1,1.48E2,1.6E2],"tree_param":{"num_deleted":"0","num_feature":"4","num_nodes":"41","size_leaf_vector":"1"}},{"base_weights":[3.633541E-2,-1.4578681E1,2.7894917E1,-1.7987667E1,-4.6516857E0,1.5472303E1,4.4109055E1,-1.9198612E1,-1.4273085E1,-6.447875E0,3.1543689E0,1.3367025E1,2.4845503E1,4.0317173E1,2.384141E0,-2.0381033E1,-8.9651746E-1,-7.7082604E-1,-6.0536903E-1,-8.084938E0,-3.642105E0,7.2539395E-1,5.568836E0,1.08013315E1,1.5534565E1,1.1058086E0,1.3893776E0,1.6915159E0,2.0679252E0,-1.0870029E0,-9.884742E-1,-4.612542E-1,-3.540915E-1,-2.254323E-1,-1.426612E-1,7.4117715E-3,1.12007655E-1,1.7550305E-1,3.063303E-1,4.5168296E-1,6.0108346E-1,7.228444E-1,8.635874E-1],"categories":[],"categories_nodes":[],"categories_segments":[],"categories_sizes":[],"default_left":[0,0,0,0,0,0,0,0,0,0,0,0,0,0,0,0,0,0,0,0,0,0,0,0,0,0,0,0,0,0,0,0,0,0,0,0,0,0,0,0,0,0,0],"id":17,"left_children":[1,3,5,7,9,11,13,15,17,19,21,23,25,27,-1,29,-1,-1,-1,31,33,35,37,39,41,-1,-1,-1,-1,-1,-1,-1,-1,-1,-1,-1,-1,-1,-1,-1,-1,-1,-1],"loss_changes":[1.2861979E6,7.0034875E4,2.1826319E5,6.6620938E3,7.4655713E3,1.1843281E4,4.46025E3,1.374125E3,7.6178125E2,1.9548242E3,5.8242847E2,2.6462031E3,2.8478125E2,1.8821875E2,0E0,6.30625E1,0E0,0E0,0E0,2.457539E2,9.719507E1,4.425499E1,3.5911377E1,3.9833398E2,2.5951562E2,0E0,0E0,0E0,0E0,0E0,0E0,0E0,0E0,0E0,0E0,0E0,0E0,0E0,0E0,0E0,0E0,0E0,0E0],"parents":[2147483647,0,0,1,1,2,2,3,3,4,4,5,5,6,6,7,7,8,8,9,9,10,10,11,11,12,12,13,13,15,15,19,19,20,20,21,21,22,22,23,23,24,24],"right_children":[2,4,6,8,10,12,14,16,18,20,22,24,26,28,-1,30,-1,-1,-1,32,34,36,38,40,42,-1,-1,-1,-1,-1,-1,-1,-1,-1,-1,-1,-1,-1,-1,-1,-1,-1,-1],"split_conditions":[7.30465E1,3.15E1,1.31591E2,1.694E1,5.5527E1,1.0488E2,1.640125E2,1.12695E1,2.48825E1,4.2654E1,6.46975E1,8.9494E1,1.195945E2,1.516E2,2.384141E0,7.3865E0,-8.9651746E-1,-7.7082604E-1,-6.0536903E-1,3.7414E1,4.80455E1,5.8957E1,7.07E1,8.3263E1,9.597E1,1.1058086E0,1.3893776E0,1.6915159E0,2.0679252E0,-1.0870029E0,-9.884742E-1,-4.612542E-1,-3.540915E-1,-2.254323E-1,-1.426612E-1,7.4117715E-3,1.12007655E-1,1.7550305E-1,3.063303E-1,4.5168296E-1,6.0108346E-1,7.228444E-1,8.635874E-1],"split_indices":[2,1,2,2,1,1,1,1,0,0,0,1,1,1,0,1,0,0,0,2,2,2,1,1,1,0,0,0,0,0,0,0,0,0,0,0,0,0,0,0,0,0,0],"split_type":[0,0,0,0,0,0,0,0,0,0,0,0,0,0,0,0,0,0,0,0,0,0,0,0,0,0,0,0,0,0,0,0,0,0,0,0,0,0,0,0,0,0,0],"sum_hessian":[3.157E3,2.071E3,1.086E3,1.541E3,5.3E2,6.16E2,4.7E2,1.159E3,3.82E2,4.31E2,9.9E1,5.05E2,1.11E2,2.34E2,2.36E2,5.92E2,5.67E2,2.46E2,1.36E2,2.71E2,1.6E2,5E1,4.9E1,2.34E2,2.71E2,6.2E1,4.9E1,3.7E1,1.97E2,1.73E2,4.19E2,1.23E2,1.48E2,7.4E1,8.6E1,3.7E1,1.3E1,1.2E1,3.7E1,9.9E1,1.35E2,1.73E2,9.8E1],"tree_param":{"num_deleted":"0","num_feature":"4","num_nodes":"43","size_leaf_vector":"1"}},{"base_weights":[3.652861E-2,-1.38523245E1,2.6510923E1,-1.7194376E1,-4.7088976E0,1.4166697E1,4.12455E1,-1.865191E1,-1.4634376E1,-6.5114474E0,2.495063E0,1.2200848E1,2.0620903E1,3.4847786E1,4.3847843E1,-9.9462026E-1,-8.922183E-1,-7.7919835E-1,-6.1068684E-1,-8.362931E0,-4.1595306E0,2.3486698E-1,5.293009E0,9.409565E0,1.3672887E1,9.2138636E-1,1.1978936E0,1.4757916E0,1.859435E0,2.1137853E0,2.508183E0,-4.8197958E-1,-3.7249932E-1,-2.777122E-1,-1.6412048E-1,-3.0954977E-2,7.369693E-2,1.6680802E-1,2.9115838E-1,4.0003648E-1,5.105526E-1,6.262957E-1,7.3640484E-1],"categories":[],"categories_nodes":[],"categories_segments":[],"categories_sizes":[],"default_left":[0,0,0,0,0,0,0,0,0,0,0,0,0,0,0,0,0,0,0,0,0,0,0,0,0,0,0,0,0,0,0,0,0,0,0,0,0,0,0,0,0,0,0],"id":18,"left_children":[1,3,5,7,9,11,13,15,17,19,21,23,25,27,29,-1,-1,-1,-1,31,33,35,37,39,41,-1,-1,-1,-1,-1,-1,-1,-1,-1,-1,-1,-1,-1,-1,-1,-1,-1,-1],"loss_changes":[1.1615605E6,6.3234844E4,1.9712675E5,5.387375E3,7.2361846E3,7.272383E3,6.7133125E3,6.0971875E2,1.0853984E3,1.9029824E3,7.0703424E2,1.7491016E3,5.6115625E2,7.49625E2,1.3346875E3,0E0,0E0,0E0,0E0,2.1723438E2,2.2398828E2,6.757443E1,3.2444946E1,1.0009961E2,1.7497266E2,0E0,0E0,0E0,0E0,0E0,0E0,0E0,0E0,0E0,0E0,0E0,0E0,0E0,0E0,0E0,0E0,0E0,0E0],"parents":[2147483647,0,0,1,1,2,2,3,3,4,4,5,5,6,6,7,7,8,8,9,9,10,10,11,11,12,12,13,13,14,14,19,19,20,20,21,21,22,22,23,23,24,24],"right_children":[2,4,6,8,10,12,14,16,18,20,22,24,26,28,30,-1,-1,-1,-1,32,34,36,38,40,42,-1,-1,-1,-1,-1,-1,-1,-1,-1,-1,-1,-1,-1,-1,-1,-1,-1,-1],"split_conditions":[7.56735E1,2.9519E1,1.238465E2,1.5298E1,5.0219E1,9.86815E1,1.545E2,9.3725E0,2.1622E1,4.11995E1,6.5288E1,8.6541E1,1.1408E2,1.4785E2,1.746275E2,-9.9462026E-1,-8.922183E-1,-7.7919835E-1,-6.1068684E-1,3.53785E1,4.5562E1,5.80135E1,6.75895E1,8.0724E1,9.2E1,9.2138636E-1,1.1978936E0,1.4757916E0,1.859435E0,2.1137853E0,2.508183E0,-4.8197958E-1,-3.7249932E-1,-2.777122E-1,-1.6412048E-1,-3.0954977E-2,7.369693E-2,1.6680802E-1,2.9115838E-1,4.0003648E-1,5.105526E-1,6.262957E-1,7.3640484E-1],"split_indices":[1,2,1,1,2,1,2,1,1,1,1,1,1,1,1,0,0,0,0,2,1,2,2,1,1,0,0,0,0,0,0,0,0,0,0,0,0,0,0,0,0,0,0],"split_type":[0,0,0,0,0,0,0,0,0,0,0,0,0,0,0,0,0,0,0,0,0,0,0,0,0,0,0,0,0,0,0,0,0,0,0,0,0,0,0,0,0,0,0],"sum_hessian":[3.157E3,2.071E3,1.086E3,1.516E3,5.55E2,5.92E2,4.94E2,9.62E2,5.54E2,4.44E2,1.11E2,4.56E2,1.36E2,1.47E2,3.47E2,3.7E2,5.92E2,3.94E2,1.6E2,2.47E2,1.97E2,6.2E1,4.9E1,1.6E2,2.96E2,8.6E1,5E1,4.9E1,9.8E1,2.84E2,6.3E1,9.9E1,1.48E2,7.4E1,1.23E2,3.7E1,2.5E1,1.2E1,3.7E1,6.2E1,9.8E1,1.48E2,1.48E2],"tree_param":{"num_deleted":"0","num_feature":"4","num_nodes":"43","size_leaf_vector":"1"}},{"base_weights":[3.7322927E-2,-1.339403E1,2.476209E1,-1.657287E1,-5.553173E0,1.3158237E1,3.91993E1,-1.804103E1,-1.4744882E1,-7.999889E0,-1.4686985E0,1.1078391E1,1.8944235E1,3.377378E1,4.1983868E1,-9.743105E-1,-8.748193E-1,-7.730581E-1,-6.4297503E-1,-9.87353E0,-6.706319E0,-3.1357102E0,1.8626808E0,8.190251E0,1.26216345E1,7.9347914E-1,1.0674701E0,1.4034778E0,1.7900752E0,2.0124204E0,2.3547266E0,-5.212799E-1,-4.3041354E-1,-3.6677858E-1,-2.8227884E-1,-1.826348E-1,-1.175674E-1,7.269448E-3,1.7654774E-1,3.1270862E-1,4.4993654E-1,5.7458353E-1,6.748872E-1],"categories":[],"categories_nodes":[],"categories_segments":[],"categories_sizes":[],"default_left":[0,0,0,0,0,0,0,0,0,0,0,0,0,0,0,0,0,0,0,0,0,0,0,0,0,0,0,0,0,0,0,0,0,0,0,0,0,0,0,0,0,0,0],"id":19,"left_children":[1,3,5,7,9,11,13,15,17,19,21,23,25,27,29,-1,-1,-1,-1,31,33,35,37,39,41,-1,-1,-1,-1,-1,-1,-1,-1,-1,-1,-1,-1,-1,-1,-1,-1,-1,-1],"loss_changes":[1.0490626E6,5.0929094E4,1.8577444E5,3.6415938E3,5.9044297E3,7.227133E3,6.060375E3,2.9109375E2,6.843906E2,8.305508E2,1.2442598E3,1.9335195E3,8.591953E2,9.960781E2,9.69375E2,0E0,0E0,0E0,0E0,1.4331055E1,1.06765625E2,5.18313E1,2.1435513E2,1.9729688E2,1.3792188E2,0E0,0E0,0E0,0E0,0E0,0E0,0E0,0E0,0E0,0E0,0E0,0E0,0E0,0E0,0E0,0E0,0E0,0E0],"parents":[2147483647,0,0,1,1,2,2,3,3,4,4,5,5,6,6,7,7,8,8,9,9,10,10,11,11,12,12,13,13,14,14,19,19,20,20,21,21,22,22,23,23,24,24],"right_children":[2,4,6,8,10,12,14,16,18,20,22,24,26,28,30,-1,-1,-1,-1,32,34,36,38,40,42,-1,-1,-1,-1,-1,-1,-1,-1,-1,-1,-1,-1,-1,-1,-1,-1,-1,-1],"split_conditions":[7.2603E1,2.65135E1,1.238465E2,1.3052E1,4.4375E1,9.5017E1,1.59694E2,8.076E0,1.8796E1,3.49005E1,5.48905E1,8.3414E1,1.016E2,1.4785E2,1.700185E2,-9.743105E-1,-8.748193E-1,-7.730581E-1,-6.4297503E-1,3.17635E1,3.9072E1,4.9534E1,5.8957E1,7.59155E1,9.04475E1,7.9347914E-1,1.0674701E0,1.4034778E0,1.7900752E0,2.0124204E0,2.3547266E0,-5.212799E-1,-4.3041354E-1,-3.6677858E-1,-2.8227884E-1,-1.826348E-1,-1.175674E-1,7.269448E-3,1.7654774E-1,3.1270862E-1,4.4993654E-1,5.7458353E-1,6.748872E-1],"split_indices":[1,2,1,2,0,2,1,2,2,0,0,2,2,1,2,0,0,0,0,2,2,1,2,2,1,0,0,0,0,0,0,0,0,0,0,0,0,0,0,0,0,0,0],"split_type":[0,0,0,0,0,0,0,0,0,0,0,0,0,0,0,0,0,0,0,0,0,0,0,0,0,0,0,0,0,0,0,0,0,0,0,0,0,0,0,0,0,0,0],"sum_hessian":[3.157E3,2.046E3,1.111E3,1.455E3,5.91E2,6.17E2,4.94E2,8.02E2,6.53E2,3.69E2,2.22E2,4.56E2,1.61E2,1.72E2,3.22E2,2.1E2,5.92E2,4.68E2,1.85E2,1.48E2,2.21E2,1.48E2,7.4E1,1.61E2,2.95E2,7.4E1,8.7E1,4.9E1,1.23E2,2.47E2,7.5E1,9.8E1,5E1,1.35E2,8.6E1,8.7E1,6.1E1,3.7E1,3.7E1,5E1,1.11E2,1.35E2,1.6E2],"tree_param":{"num_deleted":"0","num_feature":"4","num_nodes":"43","size_leaf_vector":"1"}},{"base_weights":[3.7499636E-2,-1.250623E1,2.3947868E1,-1.5430428E1,-3.9909441E0,1.32819805E1,3.786911E1,-1.67066E1,-1.2784533E1,-5.534405E0,2.7167175E0,1.1471019E1,2.1345057E1,3.5560432E1,2.1286306E0,-8.9284843E-1,-7.947294E-1,-6.880025E-1,-5.3043365E-1,-7.113614E0,-3.3874962E0,6.2383384E-1,4.7971244E0,9.261304E0,1.33379755E1,9.478251E-1,1.1963869E0,1.4982772E0,1.822744E0,-4.0621448E-1,-3.193783E-1,-2.2412562E-1,-1.316879E-1,6.915474E-3,9.485631E-2,1.505724E-1,2.640887E-1,3.8661084E-1,5.1587677E-1,6.2043536E-1,7.418254E-1],"categories":[],"categories_nodes":[],"categories_segments":[],"categories_sizes":[],"default_left":[0,0,0,0,0,0,0,0,0,0,0,0,0,0,0,0,0,0,0,0,0,0,0,0,0,0,0,0,0,0,0,0,0,0,0,0,0,0,0,0,0],"id":20,"left_children":[1,3,5,7,9,11,13,15,17,19,21,23,25,27,-1,-1,-1,-1,-1,29,31,33,35,37,39,-1,-1,-1,-1,-1,-1,-1,-1,-1,-1,-1,-1,-1,-1,-1,-1],"loss_changes":[9.4746344E5,5.153197E4,1.6089738E5,4.9931562E3,5.5124873E3,8.764539E3,3.600625E3,6.8484375E2,9.280547E2,1.4405625E3,4.3241248E2,1.9639531E3,2.3733203E2,5.1896875E2,0E0,0E0,0E0,0E0,0E0,1.3008789E2,1.4088477E2,3.1266539E1,2.7365479E1,2.9976367E2,1.9466797E2,0E0,0E0,0E0,0E0,0E0,0E0,0E0,0E0,0E0,0E0,0E0,0E0,0E0,0E0,0E0,0E0],"parents":[2147483647,0,0,1,1,2,2,3,3,4,4,5,5,6,6,7,7,8,8,9,9,10,10,11,11,12,12,13,13,19,19,20,20,21,21,22,22,23,23,24,24],"right_children":[2,4,6,8,10,12,14,16,18,20,22,24,26,28,-1,-1,-1,-1,-1,30,32,34,36,38,40,-1,-1,-1,-1,-1,-1,-1,-1,-1,-1,-1,-1,-1,-1,-1,-1],"split_conditions":[7.56735E1,3.10155E1,1.31591E2,1.58355E1,5.48905E1,1.0488E2,1.683945E2,9.6975E0,2.1709E1,4.2192E1,6.46975E1,8.775E1,1.15801E2,1.4825E2,2.1286306E0,-8.9284843E-1,-7.947294E-1,-6.880025E-1,-5.3043365E-1,3.62995E1,4.806E1,5.8957E1,6.75895E1,8.098E1,9.597E1,9.478251E-1,1.1963869E0,1.4982772E0,1.822744E0,-4.0621448E-1,-3.193783E-1,-2.2412562E-1,-1.316879E-1,6.915474E-3,9.485631E-2,1.505724E-1,2.640887E-1,3.8661084E-1,5.1587677E-1,6.2043536E-1,7.418254E-1],"split_indices":[1,2,2,1,0,1,1,1,2,1,0,2,2,2,0,0,0,0,0,2,1,2,2,2,1,0,0,0,0,0,0,0,0,0,0,0,0,0,0,0,0],"split_type":[0,0,0,0,0,0,0,0,0,0,0,0,0,0,0,0,0,0,0,0,0,0,0,0,0,0,0,0,0,0,0,0,0,0,0,0,0,0,0,0,0],"sum_hessian":[3.157E3,2.071E3,1.086E3,1.541E3,5.3E2,6.16E2,4.7E2,1.036E3,5.05E2,4.31E2,9.9E1,5.05E2,1.11E2,3.21E2,1.49E2,4.2E2,6.16E2,3.45E2,1.6E2,2.47E2,1.84E2,5E1,4.9E1,2.34E2,2.71E2,6.2E1,4.9E1,4.9E1,2.72E2,9.9E1,1.48E2,7.3E1,1.11E2,3.7E1,1.3E1,1.2E1,3.7E1,9.9E1,1.35E2,1.73E2,9.8E1],"tree_param":{"num_deleted":"0","num_feature":"4","num_nodes":"41","size_leaf_vector":"1"}},{"base_weights":[3.7646823E-2,-1.1882732E1,2.2759806E1,-1.4834596E1,-4.2637396E0,1.2625488E1,3.5987225E1,-1.605216E1,-1.2753823E1,-5.890292E0,1.7652787E0,1.0791021E1,1.983195E1,3.3783928E1,2.0238526E0,-8.735102E-1,-7.759997E-1,-6.7290765E-1,-5.3697973E-1,-7.468345E0,-3.7883525E0,-1.21584624E-1,4.560268E0,8.345972E0,1.2227877E1,8.276755E-1,1.0876575E0,1.4802082E0,1.7455873E0,-4.3822843E-1,-3.3150542E-1,-2.4324837E-1,-1.4591144E-1,-5.8270056E-2,4.6271574E-2,1.4321347E-1,2.5102356E-1,3.584822E-1,4.6429586E-1,5.592224E-1,6.728118E-1],"categories":[],"categories_nodes":[],"categories_segments":[],"categories_sizes":[],"default_left":[0,0,0,0,0,0,0,0,0,0,0,0,0,0,0,0,0,0,0,0,0,0,0,0,0,0,0,0,0,0,0,0,0,0,0,0,0,0,0,0,0],"id":21,"left_children":[1,3,5,7,9,11,13,15,17,19,21,23,25,27,-1,-1,-1,-1,-1,29,31,33,35,37,39,-1,-1,-1,-1,-1,-1,-1,-1,-1,-1,-1,-1,-1,-1,-1,-1],"loss_changes":[8.5563606E5,4.65365E4,1.4525894E5,3.57775E3,5.6981777E3,7.942742E3,3.2918125E3,4.3670312E2,6.442578E2,1.4875645E3,6.545011E2,1.6334531E3,4.2092578E2,4.8440625E2,0E0,0E0,0E0,0E0,0E0,2.243916E2,1.7128711E2,8.304546E1,2.4645142E1,1.3908008E2,2.4554688E2,0E0,0E0,0E0,0E0,0E0,0E0,0E0,0E0,0E0,0E0,0E0,0E0,0E0,0E0,0E0,0E0],"parents":[2147483647,0,0,1,1,2,2,3,3,4,4,5,5,6,6,7,7,8,8,9,9,10,10,11,11,12,12,13,13,19,19,20,20,21,21,22,22,23,23,24,24],"right_children":[2,4,6,8,10,12,14,16,18,20,22,24,26,28,-1,-1,-1,-1,-1,30,32,34,36,38,40,-1,-1,-1,-1,-1,-1,-1,-1,-1,-1,-1,-1,-1,-1,-1,-1],"split_conditions":[7.30465E1,2.81525E1,1.31591E2,1.4776E1,4.98445E1,1.000775E2,1.64892E2,8.698E0,2.11E1,4.0468E1,6.5288E1,8.79615E1,1.0834E2,1.50608E2,2.0238526E0,-8.735102E-1,-7.759997E-1,-6.7290765E-1,-5.3697973E-1,3.35325E1,4.515E1,5.6995E1,7.07E1,8.23365E1,9.40025E1,8.276755E-1,1.0876575E0,1.4802082E0,1.7455873E0,-4.3822843E-1,-3.3150542E-1,-2.4324837E-1,-1.4591144E-1,-5.8270056E-2,4.6271574E-2,1.4321347E-1,2.5102356E-1,3.584822E-1,4.6429586E-1,5.592224E-1,6.728118E-1],"split_indices":[2,2,2,2,2,2,2,1,2,0,1,1,2,2,0,0,0,0,0,2,2,1,1,1,1,0,0,0,0,0,0,0,0,0,0,0,0,0,0,0,0],"split_type":[0,0,0,0,0,0,0,0,0,0,0,0,0,0,0,0,0,0,0,0,0,0,0,0,0,0,0,0,0,0,0,0,0,0,0,0,0,0,0,0,0],"sum_hessian":[3.157E3,2.071E3,1.086E3,1.492E3,5.79E2,6.16E2,4.7E2,9.37E2,5.55E2,4.56E2,1.23E2,4.93E2,1.23E2,3.21E2,1.49E2,2.47E2,6.9E2,4.07E2,1.48E2,2.59E2,1.97E2,7.4E1,4.9E1,1.85E2,3.08E2,4.9E1,7.4E1,7.4E1,2.47E2,9.8E1,1.61E2,8.6E1,1.11E2,3.7E1,3.7E1,1.2E1,3.7E1,8.6E1,9.9E1,1.72E2,1.36E2],"tree_param":{"num_deleted":"0","num_feature":"4","num_nodes":"41","size_leaf_vector":"1"}},{"base_weights":[3.7532527E-2,-1.1489691E1,2.1257128E1,-1.42604265E1,-4.8621516E0,1.1055033E1,3.3365414E1,-1.5559261E1,-1.2771979E1,-6.9495454E0,-1.2552723E0,9.327421E0,1.5315153E1,2.678316E1,3.539875E1,-8.4735125E-1,-7.562911E-1,-6.7135626E-1,-5.682896E-1,-4.3313155E-1,-5.8338037E0,-2.6895523E0,1.6109009E0,6.8573627E0,1.0586058E1,6.711856E-1,8.803827E-1,1.1067603E0,1.4252723E0,1.7125801E0,2.1043108E0,-3.2211268E-1,-2.4664398E-1,-1.6693968E-1,-1.0942488E-1,6.411934E-3,1.5255855E-1,2.6656735E-1,3.787113E-1,4.8497882E-1,5.6650484E-1],"categories":[],"categories_nodes":[],"categories_segments":[],"categories_sizes":[],"default_left":[0,0,0,0,0,0,0,0,0,0,0,0,0,0,0,0,0,0,0,0,0,0,0,0,0,0,0,0,0,0,0,0,0,0,0,0,0,0,0,0,0],"id":22,"left_children":[1,3,5,7,9,11,13,15,17,19,21,23,25,27,29,-1,-1,-1,-1,-1,31,33,35,37,39,-1,-1,-1,-1,-1,-1,-1,-1,-1,-1,-1,-1,-1,-1,-1,-1],"loss_changes":[7.7270056E5,3.7520062E4,1.3699638E5,2.5909375E3,4.5463076E3,4.3098516E3,5.8509375E3,2.0440625E2,4.720078E2,6.815156E2,9.210621E2,1.2735625E3,5.1378906E2,3.6166406E2,1.5120312E3,0E0,0E0,0E0,0E0,0E0,9.704053E1,4.1163574E1,1.5976624E2,1.22617676E2,7.808203E1,0E0,0E0,0E0,0E0,0E0,0E0,0E0,0E0,0E0,0E0,0E0,0E0,0E0,0E0,0E0,0E0],"parents":[2147483647,0,0,1,1,2,2,3,3,4,4,5,5,6,6,7,7,8,8,9,9,10,10,11,11,12,12,13,13,14,14,20,20,21,21,22,22,23,23,24,24],"right_children":[2,4,6,8,10,12,14,16,18,20,22,24,26,28,30,-1,-1,-1,-1,-1,32,34,36,38,40,-1,-1,-1,-1,-1,-1,-1,-1,-1,-1,-1,-1,-1,-1,-1,-1],"split_conditions":[6.95155E1,2.62145E1,1.1815E2,1.3074E1,4.4375E1,9.42E1,1.5625E2,7.188E0,1.81805E1,3.41385E1,5.5527E1,8.255E1,1.016E2,1.3484E2,1.723525E2,-8.4735125E-1,-7.562911E-1,-6.7135626E-1,-5.682896E-1,-4.3313155E-1,3.8583E1,4.80455E1,5.96485E1,7.59155E1,8.84995E1,6.711856E-1,8.803827E-1,1.1067603E0,1.4252723E0,1.7125801E0,2.1043108E0,-3.2211268E-1,-2.4664398E-1,-1.6693968E-1,-1.0942488E-1,6.411934E-3,1.5255855E-1,2.6656735E-1,3.787113E-1,4.8497882E-1,5.6650484E-1],"split_indices":[2,2,2,1,0,2,1,2,2,1,1,2,2,1,2,0,0,0,0,0,2,2,1,2,2,0,0,0,0,0,0,0,0,0,0,0,0,0,0,0,0],"split_type":[0,0,0,0,0,0,0,0,0,0,0,0,0,0,0,0,0,0,0,0,0,0,0,0,0,0,0,0,0,0,0,0,0,0,0,0,0,0,0,0,0],"sum_hessian":[3.157E3,2.046E3,1.111E3,1.442E3,6.04E2,6.04E2,5.07E2,7.65E2,6.77E2,3.82E2,2.22E2,4.32E2,1.72E2,1.23E2,3.84E2,1.73E2,5.92E2,4.56E2,2.21E2,1.48E2,2.34E2,1.48E2,7.4E1,1.48E2,2.84E2,9.8E1,7.4E1,3.7E1,8.6E1,3.33E2,5.1E1,1.36E2,9.8E1,6.2E1,8.6E1,3.7E1,3.7E1,5E1,9.8E1,1.36E2,1.48E2],"tree_param":{"num_deleted":"0","num_feature":"4","num_nodes":"41","size_leaf_vector":"1"}},{"base_weights":[3.7439752E-2,-1.0917443E1,2.0203455E1,-1.3549557E1,-4.62148E0,1.0508667E1,3.170964E1,-1.4768595E1,-1.2117115E1,-6.604003E0,-1.1957949E0,8.86639E0,1.4558361E1,2.5455736E1,3.364152E1,-8.023651E-1,-7.170223E-1,-6.358296E-1,-5.3731364E-1,-4.115529E-1,-5.5442786E0,-2.55693E0,1.5242707E0,6.5229564E0,1.0060444E1,6.3791704E-1,8.3701384E-1,1.0943711E0,1.3785493E0,1.6206006E0,1.9650929E0,-3.031365E-1,-2.2963142E-1,-1.4285783E-1,-8.023817E-2,5.9391977E-3,1.4448224E-1,2.5410345E-1,3.599672E-1,4.6381265E-1,5.419945E-1],"categories":[],"categories_nodes":[],"categories_segments":[],"categories_sizes":[],"default_left":[0,0,0,0,0,0,0,0,0,0,0,0,0,0,0,0,0,0,0,0,0,0,0,0,0,0,0,0,0,0,0,0,0,0,0,0,0,0,0,0,0],"id":23,"left_children":[1,3,5,7,9,11,13,15,17,19,21,23,25,27,29,-1,-1,-1,-1,-1,31,33,35,37,39,-1,-1,-1,-1,-1,-1,-1,-1,-1,-1,-1,-1,-1,-1,-1,-1],"loss_changes":[6.978743E5,3.385964E4,1.2371041E5,2.3408125E3,4.100959E3,3.8946016E3,5.2811562E3,1.9417188E2,4.13125E2,6.147461E2,8.2952747E2,1.1459922E3,4.65875E2,3.3248438E2,1.4055625E3,0E0,0E0,0E0,0E0,0E0,8.810156E1,3.800891E1,1.4358292E2,1.0862744E2,7.3646484E1,0E0,0E0,0E0,0E0,0E0,0E0,0E0,0E0,0E0,0E0,0E0,0E0,0E0,0E0,0E0,0E0],"parents":[2147483647,0,0,1,1,2,2,3,3,4,4,5,5,6,6,7,7,8,8,9,9,10,10,11,11,12,12,13,13,14,14,20,20,21,21,22,22,23,23,24,24],"right_children":[2,4,6,8,10,12,14,16,18,20,22,24,26,28,30,-1,-1,-1,-1,-1,32,34,36,38,40,-1,-1,-1,-1,-1,-1,-1,-1,-1,-1,-1,-1,-1,-1,-1,-1],"split_conditions":[7.2603E1,2.6937E1,1.1815E2,1.285E1,4.4375E1,9.42E1,1.515025E2,7.617E0,1.86995E1,3.35325E1,5.5527E1,8.255E1,1.0488E2,1.43998E2,1.746275E2,-8.023651E-1,-7.170223E-1,-6.358296E-1,-5.3731364E-1,-4.115529E-1,3.99E1,4.9387E1,5.8957E1,7.59155E1,9.04475E1,6.3791704E-1,8.3701384E-1,1.0943711E0,1.3785493E0,1.6206006E0,1.9650929E0,-3.031365E-1,-2.2963142E-1,-1.4285783E-1,-8.023817E-2,5.9391977E-3,1.4448224E-1,2.5410345E-1,3.599672E-1,4.6381265E-1,5.419945E-1],"split_indices":[1,1,2,2,0,2,2,2,1,2,1,2,1,1,1,0,0,0,0,0,1,2,2,2,1,0,0,0,0,0,0,0,0,0,0,0,0,0,0,0,0],"split_type":[0,0,0,0,0,0,0,0,0,0,0,0,0,0,0,0,0,0,0,0,0,0,0,0,0,0,0,0,0,0,0,0,0,0,0,0,0,0,0,0,0],"sum_hessian":[3.157E3,2.046E3,1.111E3,1.442E3,6.04E2,6.04E2,5.07E2,7.74E2,6.68E2,3.82E2,2.22E2,4.32E2,1.72E2,1.23E2,3.84E2,1.85E2,5.89E2,4.59E2,2.09E2,1.48E2,2.34E2,1.48E2,7.4E1,1.48E2,2.84E2,9.8E1,7.4E1,5E1,7.3E1,3.21E2,6.3E1,1.48E2,8.6E1,1.11E2,3.7E1,3.7E1,3.7E1,5E1,9.8E1,1.48E2,1.36E2],"tree_param":{"num_deleted":"0","num_feature":"4","num_nodes":"41","size_leaf_vector":"1"}},{"base_weights":[3.7291307E-2,-1.0193515E1,1.9538849E1,-1.2578693E1,-3.2478688E0,1.0443539E1,3.0395376E1,-1.3568857E1,-1.028442E1,-4.600876E0,1.8549067E0,8.978351E0,1.5254832E1,2.6472557E1,3.2899815E1,-7.250313E-1,-6.411287E-1,-5.5324656E-1,-4.2669472E-1,-5.8713813E0,-2.970932E0,1.722116E-1,3.9380045E0,6.782873E0,1.0007955E1,6.786975E-1,8.9115524E-1,1.0862E0,1.3944184E0,1.5915968E0,1.9587711E0,-3.3075663E-1,-2.6406667E-1,-1.9468987E-1,-1.1632078E-1,-2.2107601E-2,5.3175207E-2,1.2242533E-1,2.171969E-1,2.6924407E-1,3.5983154E-1,4.6119282E-1,5.462522E-1],"categories":[],"categories_nodes":[],"categories_segments":[],"categories_sizes":[],"default_left":[0,0,0,0,0,0,0,0,0,0,0,0,0,0,0,0,0,0,0,0,0,0,0,0,0,0,0,0,0,0,0,0,0,0,0,0,0,0,0,0,0,0,0],"id":24,"left_children":[1,3,5,7,9,11,13,15,17,19,21,23,25,27,29,-1,-1,-1,-1,31,33,35,37,39,41,-1,-1,-1,-1,-1,-1,-1,-1,-1,-1,-1,-1,-1,-1,-1,-1,-1,-1],"loss_changes":[6.302728E5,3.428514E4,1.0701678E5,3.3634219E3,3.674607E3,4.0433594E3,3.9921875E3,5.608906E2,5.463711E2,8.523154E2,3.919063E2,9.6515625E2,3.4949414E2,7.253125E2,7.500625E2,0E0,0E0,0E0,0E0,6.819238E1,1.0157446E2,3.4967625E1,1.9595703E1,4.7433105E1,1.2142578E2,0E0,0E0,0E0,0E0,0E0,0E0,0E0,0E0,0E0,0E0,0E0,0E0,0E0,0E0,0E0,0E0,0E0,0E0],"parents":[2147483647,0,0,1,1,2,2,3,3,4,4,5,5,6,6,7,7,8,8,9,9,10,10,11,11,12,12,13,13,14,14,19,19,20,20,21,21,22,22,23,23,24,24],"right_children":[2,4,6,8,10,12,14,16,18,20,22,24,26,28,30,-1,-1,-1,-1,32,34,36,38,40,42,-1,-1,-1,-1,-1,-1,-1,-1,-1,-1,-1,-1,-1,-1,-1,-1,-1,-1],"split_conditions":[7.56735E1,3.10155E1,1.238465E2,1.5882E1,5.13015E1,9.86815E1,1.60722E2,9.6835E0,2.3829E1,4.1247E1,6.46975E1,8.40295E1,1.0834E2,1.4785E2,1.73849E2,-7.250313E-1,-6.411287E-1,-5.5324656E-1,-4.2669472E-1,3.62995E1,4.72745E1,5.88965E1,6.75895E1,7.7609E1,9.2306E1,6.786975E-1,8.9115524E-1,1.0862E0,1.3944184E0,1.5915968E0,1.9587711E0,-3.3075663E-1,-2.6406667E-1,-1.9468987E-1,-1.1632078E-1,-2.2107601E-2,5.3175207E-2,1.2242533E-1,2.171969E-1,2.6924407E-1,3.5983154E-1,4.6119282E-1,5.462522E-1],"split_indices":[1,2,1,2,1,1,1,2,1,2,0,2,2,1,2,0,0,0,0,2,0,1,2,2,1,0,0,0,0,0,0,0,0,0,0,0,0,0,0,0,0,0,0],"split_type":[0,0,0,0,0,0,0,0,0,0,0,0,0,0,0,0,0,0,0,0,0,0,0,0,0,0,0,0,0,0,0,0,0,0,0,0,0,0,0,0,0,0,0],"sum_hessian":[3.157E3,2.071E3,1.086E3,1.541E3,5.3E2,5.92E2,4.94E2,1.073E3,4.68E2,4.19E2,1.11E2,4.56E2,1.36E2,1.97E2,2.97E2,4.69E2,6.04E2,3.2E2,1.48E2,2.34E2,1.85E2,6.2E1,4.9E1,1.48E2,3.08E2,8.6E1,5E1,4.9E1,1.48E2,2.59E2,3.8E1,9.9E1,1.35E2,7.4E1,1.11E2,3.7E1,2.5E1,1.2E1,3.7E1,3.7E1,1.11E2,1.72E2,1.36E2],"tree_param":{"num_deleted":"0","num_feature":"4","num_nodes":"43","size_leaf_vector":"1"}},{"base_weights":[3.743955E-2,-9.685287E0,1.8570515E1,-1.2057943E1,-3.3815331E0,9.715274E0,2.8644274E1,-1.3076005E1,-1.0296762E1,-4.719895E0,1.4487295E0,8.302944E0,1.3339272E1,2.4152065E1,3.0892035E1,-7.0553225E-1,-6.277618E-1,-5.468228E-1,-4.3297002E-1,-6.002199E0,-3.0899389E0,-1.0236384E-1,3.7463949E0,6.448749E0,9.288136E0,5.815072E-1,7.572002E-1,1.0192307E0,1.3027806E0,1.4975461E0,1.8633438E0,-3.4177807E-1,-2.6385495E-1,-1.9828852E-1,-1.1910083E-1,-4.7178548E-2,3.7076857E-2,1.1694278E-1,2.064666E-1,2.5629264E-1,3.4200054E-1,4.2911386E-1,4.9605224E-1],"categories":[],"categories_nodes":[],"categories_segments":[],"categories_sizes":[],"default_left":[0,0,0,0,0,0,0,0,0,0,0,0,0,0,0,0,0,0,0,0,0,0,0,0,0,0,0,0,0,0,0,0,0,0,0,0,0,0,0,0,0,0,0],"id":25,"left_children":[1,3,5,7,9,11,13,15,17,19,21,23,25,27,29,-1,-1,-1,-1,31,33,35,37,39,41,-1,-1,-1,-1,-1,-1,-1,-1,-1,-1,-1,-1,-1,-1,-1,-1,-1,-1],"loss_changes":[5.692263E5,3.0949406E4,9.668819E4,2.5638125E3,3.678753E3,2.8578477E3,4.3834062E3,3.3470312E2,4.8765234E2,9.1154785E2,4.423063E2,7.0733203E2,3.2048047E2,7.1671094E2,8.9359375E2,0E0,0E0,0E0,0E0,1.1378711E2,1.13317505E2,5.3941856E1,1.7292053E1,4.2061035E1,3.6367188E1,0E0,0E0,0E0,0E0,0E0,0E0,0E0,0E0,0E0,0E0,0E0,0E0,0E0,0E0,0E0,0E0,0E0,0E0],"parents":[2147483647,0,0,1,1,2,2,3,3,4,4,5,5,6,6,7,7,8,8,9,9,10,10,11,11,12,12,13,13,14,14,19,19,20,20,21,21,22,22,23,23,24,24],"right_children":[2,4,6,8,10,12,14,16,18,20,22,24,26,28,30,-1,-1,-1,-1,32,34,36,38,40,42,-1,-1,-1,-1,-1,-1,-1,-1,-1,-1,-1,-1,-1,-1,-1,-1,-1,-1],"split_conditions":[7.30465E1,2.90125E1,1.1815E2,1.52245E1,4.98445E1,9.6454E1,1.55076E2,8.902E0,2.1281E1,4.02E1,6.36695E1,8.40295E1,1.016E2,1.420705E2,1.73849E2,-7.0553225E-1,-6.277618E-1,-5.468228E-1,-4.3297002E-1,3.53785E1,4.515E1,5.6508E1,6.75895E1,7.7609E1,9.11875E1,5.815072E-1,7.572002E-1,1.0192307E0,1.3027806E0,1.4975461E0,1.8633438E0,-3.4177807E-1,-2.6385495E-1,-1.9828852E-1,-1.1910083E-1,-4.7178548E-2,3.7076857E-2,1.1694278E-1,2.064666E-1,2.5629264E-1,3.4200054E-1,4.2911386E-1,4.9605224E-1],"split_indices":[2,0,2,1,2,1,2,2,0,2,2,2,2,2,2,0,0,0,0,2,2,0,2,2,1,0,0,0,0,0,0,0,0,0,0,0,0,0,0,0,0,0,0],"split_type":[0,0,0,0,0,0,0,0,0,0,0,0,0,0,0,0,0,0,0,0,0,0,0,0,0,0,0,0,0,0,0,0,0,0,0,0,0,0,0,0,0,0,0],"sum_hessian":[3.157E3,2.071E3,1.086E3,1.504E3,5.67E2,5.79E2,5.07E2,9.49E2,5.55E2,4.44E2,1.23E2,4.19E2,1.6E2,1.73E2,3.34E2,3.09E2,6.4E2,3.95E2,1.6E2,2.47E2,1.97E2,7.4E1,4.9E1,1.48E2,2.71E2,8.6E1,7.4E1,6.2E1,1.11E2,2.96E2,3.8E1,1.11E2,1.36E2,8.6E1,1.11E2,3.7E1,3.7E1,1.2E1,3.7E1,3.7E1,1.11E2,1.35E2,1.36E2],"tree_param":{"num_deleted":"0","num_feature":"4","num_nodes":"43","size_leaf_vector":"1"}},{"base_weights":[3.7347943E-2,-9.365056E0,1.7345516E1,-1.1656642E1,-4.035031E0,9.022262E0,2.722391E1,-1.27366295E1,-1.0481639E1,-5.725343E0,-1.0228845E0,7.4633665E0,1.2188963E1,2.3556135E1,2.9729534E1,-6.9422364E-1,-6.181289E-1,-5.4926693E-1,-4.687643E-1,-3.6514202E-1,-4.868809E0,-2.1968837E0,1.3230989E0,5.5936294E0,8.506165E0,5.3787684E-1,7.196534E-1,9.693443E-1,1.2580439E0,1.4378462E0,1.7725657E0,-2.68315E-1,-2.0052896E-1,-1.3773948E-1,-8.838155E-2,2.327982E-2,1.50974E-1,2.1856342E-1,3.0834147E-1,3.878166E-1,4.5063543E-1],"categories":[],"categories_nodes":[],"categories_segments":[],"categories_sizes":[],"default_left":[0,0,0,0,0,0,0,0,0,0,0,0,0,0,0,0,0,0,0,0,0,0,0,0,0,0,0,0,0,0,0,0,0,0,0,0,0,0,0,0,0],"id":26,"left_children":[1,3,5,7,9,11,13,15,17,19,21,23,25,27,29,-1,-1,-1,-1,-1,31,33,35,37,39,-1,-1,-1,-1,-1,-1,-1,-1,-1,-1,-1,-1,-1,-1,-1,-1],"loss_changes":[5.1409025E5,2.4955484E4,9.118341E4,1.6824062E3,3.13558E3,2.8956406E3,3.96825E3,1.4649219E2,2.8207812E2,4.9816016E2,6.1708936E2,7.479238E2,4.6985938E2,9.2391406E2,6.3890625E2,0E0,0E0,0E0,0E0,0E0,8.9061035E1,3.0813477E1,1.0769298E2,7.744092E1,2.8847656E1,0E0,0E0,0E0,0E0,0E0,0E0,0E0,0E0,0E0,0E0,0E0,0E0,0E0,0E0,0E0,0E0],"parents":[2147483647,0,0,1,1,2,2,3,3,4,4,5,5,6,6,7,7,8,8,9,9,10,10,11,11,12,12,13,13,14,14,20,20,21,21,22,22,23,23,24,24],"right_children":[2,4,6,8,10,12,14,16,18,20,22,24,26,28,30,-1,-1,-1,-1,-1,32,34,36,38,40,-1,-1,-1,-1,-1,-1,-1,-1,-1,-1,-1,-1,-1,-1,-1,-1],"split_conditions":[7.2603E1,2.66225E1,1.2165E2,1.26405E1,4.4375E1,9.49775E1,1.60722E2,7.3865E0,1.8284E1,3.28315E1,5.48905E1,8.48E1,1.0488E2,1.420705E2,1.73849E2,-6.9422364E-1,-6.181289E-1,-5.4926693E-1,-4.687643E-1,-3.6514202E-1,3.9123E1,4.80455E1,6.46975E1,7.59155E1,8.775E1,5.3787684E-1,7.196534E-1,9.693443E-1,1.2580439E0,1.4378462E0,1.7725657E0,-2.68315E-1,-2.0052896E-1,-1.3773948E-1,-8.838155E-2,2.327982E-2,1.50974E-1,2.1856342E-1,3.0834147E-1,3.878166E-1,4.5063543E-1],"split_indices":[1,1,1,2,0,1,1,1,1,2,0,1,1,2,2,0,0,0,0,0,1,2,0,2,2,0,0,0,0,0,0,0,0,0,0,0,0,0,0,0,0],"split_type":[0,0,0,0,0,0,0,0,0,0,0,0,0,0,0,0,0,0,0,0,0,0,0,0,0,0,0,0,0,0,0,0,0,0,0,0,0,0,0,0,0],"sum_hessian":[3.157E3,2.046E3,1.111E3,1.43E3,6.16E2,6.04E2,5.07E2,7.4E2,6.9E2,3.94E2,2.22E2,4.07E2,1.97E2,2.1E2,2.97E2,1.73E2,5.67E2,4.68E2,2.22E2,1.36E2,2.58E2,1.48E2,7.4E1,1.48E2,2.59E2,1.23E2,7.4E1,6.2E1,1.48E2,2.59E2,3.8E1,1.6E2,9.8E1,6.2E1,8.6E1,5E1,2.4E1,5E1,9.8E1,1.11E2,1.48E2],"tree_param":{"num_deleted":"0","num_feature":"4","num_nodes":"41","size_leaf_vector":"1"}},{"base_weights":[3.701415E-2,-8.744035E0,1.6775097E1,-1.0759636E1,-2.692035E0,9.302489E0,2.6528439E1,-1.1500046E1,-8.359242E0,-3.7833629E0,1.9184626E0,7.7777257E0,1.4039479E1,2.456526E1,2.970864E1,-1.2240925E1,-5.319938E-1,-4.5319253E-1,-3.5401282E-1,-4.7565527E0,-2.1882527E0,4.417742E-1,3.3863156E0,5.9223022E0,8.719296E0,5.9004754E-1,8.045408E-1,1.0470284E0,1.2598497E0,1.4268066E0,1.7539418E0,-6.624295E-1,-5.9333813E-1,-2.6139194E-1,-1.9751085E-1,-1.3737069E-1,-8.405325E-2,4.3125055E-3,6.876064E-2,1.04525246E-1,1.870253E-1,2.4924217E-1,3.2295233E-1,3.9828116E-1,4.737575E-1],"categories":[],"categories_nodes":[],"categories_segments":[],"categories_sizes":[],"default_left":[0,0,0,0,0,0,0,0,0,0,0,0,0,0,0,0,0,0,0,0,0,0,0,0,0,0,0,0,0,0,0,0,0,0,0,0,0,0,0,0,0,0,0,0,0],"id":27,"left_children":[1,3,5,7,9,11,13,15,17,19,21,23,25,27,29,31,-1,-1,-1,33,35,37,39,41,43,-1,-1,-1,-1,-1,-1,-1,-1,-1,-1,-1,-1,-1,-1,-1,-1,-1,-1,-1,-1],"loss_changes":[4.6430294E5,2.5246156E4,7.897694E4,2.66575E3,2.61864E3,4.3472695E3,2.2107812E3,6.249375E2,2.6926562E2,6.4157666E2,2.152601E2,7.6771094E2,4.9431445E2,1.524375E2,1.00890625E2,8.03125E1,0E0,0E0,0E0,7.815234E1,4.1040955E1,1.6806242E1,1.5128662E1,4.8813965E1,1.0055078E2,0E0,0E0,0E0,0E0,0E0,0E0,0E0,0E0,0E0,0E0,0E0,0E0,0E0,0E0,0E0,0E0,0E0,0E0,0E0,0E0],"parents":[2147483647,0,0,1,1,2,2,3,3,4,4,5,5,6,6,7,7,8,8,9,9,10,10,11,11,12,12,13,13,14,14,15,15,19,19,20,20,21,21,22,22,23,23,24,24],"right_children":[2,4,6,8,10,12,14,16,18,20,22,24,26,28,30,32,-1,-1,-1,34,36,38,40,42,44,-1,-1,-1,-1,-1,-1,-1,-1,-1,-1,-1,-1,-1,-1,-1,-1,-1,-1,-1,-1],"split_conditions":[7.56735E1,3.285E1,1.3484E2,1.7966E1,5.5527E1,9.97625E1,1.638895E2,1.12355E1,2.61345E1,4.27845E1,6.5288E1,8.6541E1,1.1408E2,1.4825E2,1.759E2,6.96E0,-5.319938E-1,-4.5319253E-1,-3.5401282E-1,3.885E1,4.80455E1,5.96485E1,7.07E1,8.0724E1,9.06305E1,5.9004754E-1,8.045408E-1,1.0470284E0,1.2598497E0,1.4268066E0,1.7539418E0,-6.624295E-1,-5.9333813E-1,-2.6139194E-1,-1.9751085E-1,-1.3737069E-1,-8.405325E-2,4.3125055E-3,6.876064E-2,1.04525246E-1,1.870253E-1,2.4924217E-1,3.2295233E-1,3.9828116E-1,4.737575E-1],"split_indices":[1,1,1,1,1,1,2,2,1,1,1,1,1,2,2,2,0,0,0,1,2,1,1,1,2,0,0,0,0,0,0,0,0,0,0,0,0,0,0,0,0,0,0,0,0],"split_type":[0,0,0,0,0,0,0,0,0,0,0,0,0,0,0,0,0,0,0,0,0,0,0,0,0,0,0,0,0,0,0,0,0,0,0,0,0,0,0,0,0,0,0,0,0],"sum_hessian":[3.157E3,2.071E3,1.086E3,1.553E3,5.18E2,6.16E2,4.7E2,1.184E3,3.69E2,4.19E2,9.9E1,4.68E2,1.48E2,2.96E2,1.74E2,6.29E2,5.55E2,2.34E2,1.35E2,2.59E2,1.6E2,5E1,4.9E1,1.6E2,3.08E2,7.4E1,7.4E1,4.9E1,2.47E2,1.48E2,2.6E1,1.61E2,4.68E2,1.6E2,9.9E1,7.4E1,8.6E1,3.7E1,1.3E1,1.2E1,3.7E1,6.2E1,9.8E1,1.6E2,1.48E2],"tree_param":{"num_deleted":"0","num_feature":"4","num_nodes":"45","size_leaf_vector":"1"}},{"base_weights":[3.6877587E-2,-8.308313E0,1.5944143E1,-1.0223347E1,-2.5582738E0,8.84163E0,2.5214434E1,-1.0973337E1,-8.082774E0,-3.5959852E0,1.8256967E0,7.4737263E0,1.3624629E1,2.353901E1,1.432146E0,-1.1692395E1,-5.1092523E-1,-4.3652603E-1,-3.3639255E-1,-4.465764E0,-1.9840667E0,4.2308724E-1,3.2198443E0,5.7331805E0,8.429652E0,5.693644E-1,7.646252E-1,1.0180697E0,1.2109218E0,-6.2955E-1,-5.658976E-1,-2.4599457E-1,-1.8112461E-1,-1.1734015E-1,-7.186072E-2,4.1804663E-3,6.571534E-2,9.9487394E-2,1.777967E-1,2.4313234E-1,3.1643745E-1,3.8917047E-1,4.6593276E-1],"categories":[],"categories_nodes":[],"categories_segments":[],"categories_sizes":[],"default_left":[0,0,0,0,0,0,0,0,0,0,0,0,0,0,0,0,0,0,0,0,0,0,0,0,0,0,0,0,0,0,0,0,0,0,0,0,0,0,0,0,0,0,0],"id":28,"left_children":[1,3,5,7,9,11,13,15,17,19,21,23,25,27,-1,29,-1,-1,-1,31,33,35,37,39,41,-1,-1,-1,-1,-1,-1,-1,-1,-1,-1,-1,-1,-1,-1,-1,-1,-1,-1],"loss_changes":[4.1935434E5,2.2789703E4,7.134775E4,2.4061094E3,2.3676497E3,3.9350117E3,2.0312812E3,5.03625E2,2.9846484E2,5.7998535E2,1.9418219E2,7.536387E2,3.3335742E2,2.020625E2,0E0,5.2992188E1,0E0,0E0,0E0,8.634082E1,2.6183228E1,1.532013E1,1.3595764E1,5.94375E1,1.0499219E2,0E0,0E0,0E0,0E0,0E0,0E0,0E0,0E0,0E0,0E0,0E0,0E0,0E0,0E0,0E0,0E0,0E0,0E0],"parents":[2147483647,0,0,1,1,2,2,3,3,4,4,5,5,6,6,7,7,8,8,9,9,10,10,11,11,12,12,13,13,15,15,19,19,20,20,21,21,22,22,23,23,24,24],"right_children":[2,4,6,8,10,12,14,16,18,20,22,24,26,28,-1,30,-1,-1,-1,32,34,36,38,40,42,-1,-1,-1,-1,-1,-1,-1,-1,-1,-1,-1,-1,-1,-1,-1,-1,-1,-1],"split_conditions":[7.30465E1,3.17635E1,1.31591E2,1.6694E1,5.48905E1,1.007335E2,1.683945E2,1.0817E1,2.54255E1,4.4375E1,6.36695E1,8.73915E1,1.0834E2,1.541365E2,1.432146E0,7.13E0,-5.1092523E-1,-4.3652603E-1,-3.3639255E-1,3.8583E1,4.9534E1,5.8957E1,6.75895E1,7.98945E1,9.2282E1,5.693644E-1,7.646252E-1,1.0180697E0,1.2109218E0,-6.2955E-1,-5.658976E-1,-2.4599457E-1,-1.8112461E-1,-1.1734015E-1,-7.186072E-2,4.1804663E-3,6.571534E-2,9.9487394E-2,1.777967E-1,2.4313234E-1,3.1643745E-1,3.8917047E-1,4.6593276E-1],"split_indices":[2,2,2,2,0,1,1,2,2,0,2,1,2,1,0,1,0,0,0,2,1,2,2,2,2,0,0,0,0,0,0,0,0,0,0,0,0,0,0,0,0,0,0],"split_type":[0,0,0,0,0,0,0,0,0,0,0,0,0,0,0,0,0,0,0,0,0,0,0,0,0,0,0,0,0,0,0,0,0,0,0,0,0,0,0,0,0,0,0],"sum_hessian":[3.157E3,2.071E3,1.086E3,1.553E3,5.18E2,6.16E2,4.7E2,1.147E3,4.06E2,4.19E2,9.9E1,4.81E2,1.35E2,3.21E2,1.49E2,5.8E2,5.67E2,2.71E2,1.35E2,2.71E2,1.48E2,5E1,4.9E1,1.73E2,3.08E2,6.1E1,7.4E1,6.2E1,2.59E2,1.61E2,4.19E2,1.73E2,9.8E1,8.7E1,6.1E1,3.7E1,1.3E1,1.2E1,3.7E1,7.4E1,9.9E1,1.84E2,1.24E2],"tree_param":{"num_deleted":"0","num_feature":"4","num_nodes":"43","size_leaf_vector":"1"}},{"base_weights":[3.619317E-2,-8.033781E0,1.4891591E1,-9.88801E0,-3.1881962E0,7.7401595E0,2.3379236E1,-1.0810217E1,-8.664077E0,-4.6046515E0,-7.5155014E-1,6.522733E0,1.0742502E1,2.0330875E1,2.567436E1,-5.936834E-1,-5.2458626E-1,-4.576791E-1,-7.4080343E0,-5.6551943E0,-3.840976E0,-1.655429E0,1.4327966E0,4.7949667E0,7.403135E0,4.7135502E-1,6.1678E-1,8.344738E-1,1.0814747E0,1.2458801E0,1.6005379E0,-3.8789985E-1,-3.2943124E-1,-3.0319747E-1,-2.4919061E-1,-2.1162808E-1,-1.617102E-1,-1.0093218E-1,-4.5895305E-2,3.1453934E-2,1.2985681E-1,1.8702573E-1,2.644868E-1,3.3250725E-1,3.922636E-1],"categories":[],"categories_nodes":[],"categories_segments":[],"categories_sizes":[],"default_left":[0,0,0,0,0,0,0,0,0,0,0,0,0,0,0,0,0,0,0,0,0,0,0,0,0,0,0,0,0,0,0,0,0,0,0,0,0,0,0,0,0,0,0,0,0],"id":29,"left_children":[1,3,5,7,9,11,13,15,17,19,21,23,25,27,29,-1,-1,-1,31,33,35,37,39,41,43,-1,-1,-1,-1,-1,-1,-1,-1,-1,-1,-1,-1,-1,-1,-1,-1,-1,-1,-1,-1],"loss_changes":[3.787092E5,1.8360406E4,6.731611E4,1.5768438E3,1.9569346E3,2.1412852E3,3.0321875E3,1.5992969E2,3.2630078E2,2.6629443E2,4.169927E2,6.231504E2,2.4624414E2,6.9353125E2,5.7378125E2,0E0,0E0,0E0,1.9365234E0,1.0668945E1,3.6445312E1,3.8061005E1,5.6385803E1,5.7948486E1,4.2710938E1,0E0,0E0,0E0,0E0,0E0,0E0,0E0,0E0,0E0,0E0,0E0,0E0,0E0,0E0,0E0,0E0,0E0,0E0,0E0,0E0],"parents":[2147483647,0,0,1,1,2,2,3,3,4,4,5,5,6,6,7,7,8,8,9,9,10,10,11,11,12,12,13,13,14,14,18,18,19,19,20,20,21,21,22,22,23,23,24,24],"right_children":[2,4,6,8,10,12,14,16,18,20,22,24,26,28,30,-1,-1,-1,32,34,36,38,40,42,44,-1,-1,-1,-1,-1,-1,-1,-1,-1,-1,-1,-1,-1,-1,-1,-1,-1,-1,-1,-1],"split_conditions":[6.95155E1,2.835E1,1.1815E2,1.33325E1,4.5562E1,9.597E1,1.57709E2,7.8315E0,1.9471E1,3.5677E1,5.6995E1,8.255E1,1.016E2,1.4785E2,1.759E2,-5.936834E-1,-5.2458626E-1,-4.576791E-1,2.61345E1,3.28315E1,4.0468E1,4.9387E1,6.5288E1,7.59155E1,8.9494E1,4.7135502E-1,6.1678E-1,8.344738E-1,1.0814747E0,1.2458801E0,1.6005379E0,-3.8789985E-1,-3.2943124E-1,-3.0319747E-1,-2.4919061E-1,-2.1162808E-1,-1.617102E-1,-1.0093218E-1,-4.5895305E-2,3.1453934E-2,1.2985681E-1,1.8702573E-1,2.644868E-1,3.3250725E-1,3.922636E-1],"split_indices":[2,1,2,2,1,1,2,1,1,2,1,2,2,1,2,0,0,0,1,2,0,2,1,2,1,0,0,0,0,0,0,0,0,0,0,0,0,0,0,0,0,0,0,0,0],"split_type":[0,0,0,0,0,0,0,0,0,0,0,0,0,0,0,0,0,0,0,0,0,0,0,0,0,0,0,0,0,0,0,0,0,0,0,0,0,0,0,0,0,0,0,0,0],"sum_hessian":[3.157E3,2.046E3,1.111E3,1.479E3,5.67E2,6.04E2,5.07E2,8.39E2,6.4E2,3.58E2,2.09E2,4.32E2,1.72E2,2.22E2,2.85E2,1.85E2,6.54E2,4.56E2,1.84E2,1.48E2,2.1E2,1.48E2,6.1E1,1.48E2,2.84E2,9.8E1,7.4E1,6.2E1,1.6E2,2.59E2,2.6E1,1.23E2,6.1E1,8.7E1,6.1E1,1.24E2,8.6E1,9.8E1,5E1,3.7E1,2.4E1,5E1,9.8E1,1.11E2,1.73E2],"tree_param":{"num_deleted":"0","num_feature":"4","num_nodes":"45","size_leaf_vector":"1"}},{"base_weights":[3.559336E-2,-7.501204E0,1.4401931E1,-9.39516E0,-2.761651E0,7.5294456E0,2.222012E1,-1.0242568E1,-8.193286E0,-4.250129E0,-4.6728343E-2,6.4829116E0,1.0513158E1,1.931958E1,2.4404036E1,-5.584847E-1,-4.9522877E-1,-4.3343264E-1,-7.045159E0,-5.237279E0,-3.4119663E0,-1.1570338E0,2.579974E0,5.0773854E0,7.291025E0,4.6830755E-1,5.9858006E-1,7.9360265E-1,1.0274309E0,1.184015E0,1.5234748E0,-3.688185E-1,-3.1318817E-1,-2.8832486E-1,-2.3208895E-1,-1.9416171E-1,-1.4221752E-1,-7.825611E-2,3.8100593E-3,7.725185E-2,1.6100973E-1,2.1324873E-1,2.771544E-1,3.3440804E-1,3.8719022E-1],"categories":[],"categories_nodes":[],"categories_segments":[],"categories_sizes":[],"default_left":[0,0,0,0,0,0,0,0,0,0,0,0,0,0,0,0,0,0,0,0,0,0,0,0,0,0,0,0,0,0,0,0,0,0,0,0,0,0,0,0,0,0,0,0,0],"id":30,"left_children":[1,3,5,7,9,11,13,15,17,19,21,23,25,27,29,-1,-1,-1,31,33,35,37,39,41,43,-1,-1,-1,-1,-1,-1,-1,-1,-1,-1,-1,-1,-1,-1,-1,-1,-1,-1,-1,-1],"loss_changes":[3.4204422E5,1.8573367E4,5.8237625E4,1.4234297E3,2.3961753E3,1.7429258E3,2.7464688E3,1.6011719E2,2.7567188E2,2.9902197E2,6.183543E2,4.536582E2,1.3712695E2,6.1872656E2,5.339531E2,0E0,0E0,0E0,1.9345703E0,2.8068848E1,4.512964E1,7.510629E1,3.676773E1,3.7271973E1,2.2454102E1,0E0,0E0,0E0,0E0,0E0,0E0,0E0,0E0,0E0,0E0,0E0,0E0,0E0,0E0,0E0,0E0,0E0,0E0,0E0,0E0],"parents":[2147483647,0,0,1,1,2,2,3,3,4,4,5,5,6,6,7,7,8,8,9,9,10,10,11,11,12,12,13,13,14,14,18,18,19,19,20,20,21,21,22,22,23,23,24,24],"right_children":[2,4,6,8,10,12,14,16,18,20,22,24,26,28,30,-1,-1,-1,32,34,36,38,40,42,44,-1,-1,-1,-1,-1,-1,-1,-1,-1,-1,-1,-1,-1,-1,-1,-1,-1,-1,-1,-1],"split_conditions":[7.56735E1,2.835E1,1.2165E2,1.38535E1,4.806E1,9.5017E1,1.61432E2,8.4405E0,1.9155E1,3.7468E1,5.96485E1,8.45835E1,1.044E2,1.4785E2,1.759E2,-5.584847E-1,-4.9522877E-1,-4.3343264E-1,2.54255E1,3.34435E1,4.07585E1,5.5527E1,7.07E1,7.9335E1,8.9364E1,4.6830755E-1,5.9858006E-1,7.9360265E-1,1.0274309E0,1.184015E0,1.5234748E0,-3.688185E-1,-3.1318817E-1,-2.8832486E-1,-2.3208895E-1,-1.9416171E-1,-1.4221752E-1,-7.825611E-2,3.8100593E-3,7.725185E-2,1.6100973E-1,2.1324873E-1,2.771544E-1,3.3440804E-1,3.8719022E-1],"split_indices":[1,1,1,1,1,2,1,1,2,1,1,2,2,1,2,0,0,0,2,1,2,1,1,2,2,0,0,0,0,0,0,0,0,0,0,0,0,0,0,0,0,0,0,0,0],"split_type":[0,0,0,0,0,0,0,0,0,0,0,0,0,0,0,0,0,0,0,0,0,0,0,0,0,0,0,0,0,0,0,0,0,0,0,0,0,0,0,0,0,0,0,0,0],"sum_hessian":[3.157E3,2.071E3,1.086E3,1.479E3,5.92E2,5.79E2,5.07E2,8.63E2,6.16E2,3.82E2,2.1E2,4.31E2,1.48E2,2.22E2,2.85E2,2.22E2,6.41E2,4.31E2,1.85E2,1.73E2,2.09E2,1.48E2,6.2E1,1.6E2,2.71E2,8.7E1,6.1E1,6.2E1,1.6E2,2.59E2,2.6E1,1.24E2,6.1E1,8.7E1,8.6E1,1.11E2,9.8E1,1.11E2,3.7E1,2.5E1,3.7E1,6.2E1,9.8E1,1.23E2,1.48E2],"tree_param":{"num_deleted":"0","num_feature":"4","num_nodes":"45","size_leaf_vector":"1"}},{"base_weights":[3.506225E-2,-7.1275816E0,1.3688202E1,-8.795675E0,-2.2700891E0,7.5879555E0,2.1650333E1,-9.554817E0,-7.2809224E0,-3.221964E0,1.3197094E0,6.341432E0,1.1460649E1,2.0413303E1,1.2694387E0,-5.133495E-1,-4.534199E-1,-3.9284626E-1,-3.0468467E-1,-4.1122837E0,-2.0797746E0,1.479775E-1,2.7696974E0,4.8272877E0,7.1098332E0,4.815116E-1,6.5691286E-1,9.089382E-1,1.0597113E0,-2.3274367E-1,-1.8415418E-1,-1.3665508E-1,-8.118548E-2,-1.5578802E-2,4.0697064E-2,8.5070774E-2,1.5311378E-1,2.026497E-1,2.63563E-1,3.2457173E-1,3.8693446E-1],"categories":[],"categories_nodes":[],"categories_segments":[],"categories_sizes":[],"default_left":[0,0,0,0,0,0,0,0,0,0,0,0,0,0,0,0,0,0,0,0,0,0,0,0,0,0,0,0,0,0,0,0,0,0,0,0,0,0,0,0,0],"id":31,"left_children":[1,3,5,7,9,11,13,15,17,19,21,23,25,27,-1,-1,-1,-1,-1,29,31,33,35,37,39,-1,-1,-1,-1,-1,-1,-1,-1,-1,-1,-1,-1,-1,-1,-1,-1],"loss_changes":[3.0892653E5,1.6768945E4,5.2632344E4,1.7036016E3,1.8186997E3,2.905832E3,1.6599219E3,2.61625E2,3.0703906E2,4.1855078E2,1.8987782E2,5.113457E2,3.3101172E2,2.4115625E2,0E0,0E0,0E0,0E0,0E0,3.7582764E1,5.0982788E1,1.9534502E1,1.0417633E1,3.398169E1,6.9930664E1,0E0,0E0,0E0,0E0,0E0,0E0,0E0,0E0,0E0,0E0,0E0,0E0,0E0,0E0,0E0,0E0],"parents":[2147483647,0,0,1,1,2,2,3,3,4,4,5,5,6,6,7,7,8,8,9,9,10,10,11,11,12,12,13,13,19,19,20,20,21,21,22,22,23,23,24,24],"right_children":[2,4,6,8,10,12,14,16,18,20,22,24,26,28,-1,-1,-1,-1,-1,30,32,34,36,38,40,-1,-1,-1,-1,-1,-1,-1,-1,-1,-1,-1,-1,-1,-1,-1,-1],"split_conditions":[7.30465E1,3.15E1,1.3484E2,1.5376E1,5.13015E1,9.97625E1,1.669775E2,9.5865E0,2.145E1,4.1875E1,6.36695E1,8.45835E1,1.1408E2,1.57086E2,1.2694387E0,-5.133495E-1,-4.534199E-1,-3.9284626E-1,-3.0468467E-1,3.62995E1,4.6795E1,5.80135E1,6.75895E1,8.0724E1,9.2306E1,4.815116E-1,6.5691286E-1,9.089382E-1,1.0597113E0,-2.3274367E-1,-1.8415418E-1,-1.3665508E-1,-8.118548E-2,-1.5578802E-2,4.0697064E-2,8.5070774E-2,1.5311378E-1,2.026497E-1,2.63563E-1,3.2457173E-1,3.8693446E-1],"split_indices":[2,1,1,2,1,1,2,1,2,1,2,2,1,1,0,0,0,0,0,2,2,2,2,1,1,0,0,0,0,0,0,0,0,0,0,0,0,0,0,0,0],"split_type":[0,0,0,0,0,0,0,0,0,0,0,0,0,0,0,0,0,0,0,0,0,0,0,0,0,0,0,0,0,0,0,0,0,0,0,0,0,0,0,0,0],"sum_hessian":[3.157E3,2.071E3,1.086E3,1.541E3,5.3E2,6.16E2,4.7E2,1.023E3,5.18E2,4.19E2,1.11E2,4.68E2,1.48E2,3.58E2,1.12E2,4.07E2,6.16E2,3.45E2,1.73E2,2.34E2,1.85E2,6.2E1,4.9E1,1.6E2,3.08E2,7.4E1,7.4E1,9.9E1,2.59E2,9.9E1,1.35E2,7.4E1,1.11E2,3.7E1,2.5E1,1.2E1,3.7E1,6.2E1,9.8E1,1.61E2,1.47E2],"tree_param":{"num_deleted":"0","num_feature":"4","num_nodes":"41","size_leaf_vector":"1"}},{"base_weights":[3.4423813E-2,-6.949745E0,1.2679218E1,-8.577985E0,-3.0869997E0,6.570619E0,2.0073563E1,-9.395939E0,-7.6884303E0,-4.2177725E0,-9.5551944E-1,5.415504E0,8.987678E0,1.7550629E1,2.2164131E1,-5.155067E-1,-4.5621976E-1,-4.0231037E-1,-3.4153184E-1,-5.17791E0,-3.4462333E0,-1.6170683E0,6.2426317E-1,3.9331284E0,6.2076306E0,3.9731467E-1,5.2947986E-1,7.1718645E-1,9.308505E-1,1.0731676E0,1.3890015E0,-2.7202567E-1,-2.2189474E-1,-1.9072032E-1,-1.4751385E-1,-9.369555E-2,-5.3552072E-2,3.4931835E-3,7.0526466E-2,1.5732889E-1,2.2287455E-1,2.8234586E-1,3.3163014E-1],"categories":[],"categories_nodes":[],"categories_segments":[],"categories_sizes":[],"default_left":[0,0,0,0,0,0,0,0,0,0,0,0,0,0,0,0,0,0,0,0,0,0,0,0,0,0,0,0,0,0,0,0,0,0,0,0,0,0,0,0,0,0,0],"id":32,"left_children":[1,3,5,7,9,11,13,15,17,19,21,23,25,27,29,-1,-1,-1,-1,31,33,35,37,39,41,-1,-1,-1,-1,-1,-1,-1,-1,-1,-1,-1,-1,-1,-1,-1,-1,-1,-1],"loss_changes":[2.7898175E5,1.2772602E4,5.0638156E4,9.6897656E2,1.4541523E3,1.6739766E3,2.290375E3,8.9875E1,1.5710547E2,2.7476562E2,2.2152629E2,4.6876074E2,2.4615918E2,5.366094E2,4.8207812E2,0E0,0E0,0E0,0E0,9.668945E0,2.9283203E1,1.888919E1,2.7363499E1,4.742749E1,2.7360352E1,0E0,0E0,0E0,0E0,0E0,0E0,0E0,0E0,0E0,0E0,0E0,0E0,0E0,0E0,0E0,0E0,0E0,0E0],"parents":[2147483647,0,0,1,1,2,2,3,3,4,4,5,5,6,6,7,7,8,8,9,9,10,10,11,11,12,12,13,13,14,14,19,19,20,20,21,21,22,22,23,23,24,24],"right_children":[2,4,6,8,10,12,14,16,18,20,22,24,26,28,30,-1,-1,-1,-1,32,34,36,38,40,42,-1,-1,-1,-1,-1,-1,-1,-1,-1,-1,-1,-1,-1,-1,-1,-1,-1,-1],"split_conditions":[7.07E1,2.5929E1,1.1815E2,1.28885E1,4.4375E1,9.3225E1,1.58253E2,6.96E0,1.81805E1,3.49005E1,5.48905E1,8.38305E1,1.016E2,1.420705E2,1.759E2,-5.155067E-1,-4.5621976E-1,-4.0231037E-1,-3.4153184E-1,3.285E1,3.9123E1,4.98975E1,5.945E1,7.59155E1,8.775E1,3.9731467E-1,5.2947986E-1,7.1718645E-1,9.308505E-1,1.0731676E0,1.3890015E0,-2.7202567E-1,-2.2189474E-1,-1.9072032E-1,-1.4751385E-1,-9.369555E-2,-5.3552072E-2,3.4931835E-3,7.0526466E-2,1.5732889E-1,2.2287455E-1,2.8234586E-1,3.3163014E-1],"split_indices":[1,2,2,1,0,2,2,2,2,0,0,1,2,2,2,0,0,0,0,1,1,1,0,2,2,0,0,0,0,0,0,0,0,0,0,0,0,0,0,0,0,0,0],"split_type":[0,0,0,0,0,0,0,0,0,0,0,0,0,0,0,0,0,0,0,0,0,0,0,0,0,0,0,0,0,0,0,0,0,0,0,0,0,0,0,0,0,0,0],"sum_hessian":[3.157E3,2.034E3,1.123E3,1.43E3,6.04E2,6.16E2,5.07E2,7.4E2,6.9E2,3.94E2,2.1E2,4.19E2,1.97E2,2.34E2,2.73E2,1.61E2,5.79E2,4.81E2,2.09E2,1.73E2,2.21E2,1.48E2,6.2E1,1.48E2,2.71E2,1.23E2,7.4E1,6.2E1,1.72E2,2.47E2,2.6E1,1.23E2,5E1,1.23E2,9.8E1,9.9E1,4.9E1,3.7E1,2.5E1,6.2E1,8.6E1,1.23E2,1.48E2],"tree_param":{"num_deleted":"0","num_feature":"4","num_nodes":"43","size_leaf_vector":"1"}},{"base_weights":[3.3782866E-2,-6.4349923E0,1.2364296E1,-8.06E0,-2.3684697E0,6.852789E0,1.9558002E1,-8.872897E0,-7.118976E0,-3.586968E0,8.048869E-2,5.7261314E0,1.0353122E1,1.8421926E1,1.1497115E0,-4.8992524E-1,-4.3101993E-1,-3.76074E-1,-6.078796E0,-4.3397646E0,-2.7137043E0,-9.114622E-1,2.2205653E0,4.3574433E0,6.4207354E0,4.348959E-1,5.9351414E-1,8.10631E-1,9.529256E-1,-3.1769592E-1,-2.6864102E-1,-2.4696966E-1,-1.9396119E-1,-1.5005916E-1,-1.05239905E-1,-6.384372E-2,3.225939E-3,6.706487E-2,1.381867E-1,1.7623612E-1,2.345144E-1,2.9270646E-1,3.4949413E-1],"categories":[],"categories_nodes":[],"categories_segments":[],"categories_sizes":[],"default_left":[0,0,0,0,0,0,0,0,0,0,0,0,0,0,0,0,0,0,0,0,0,0,0,0,0,0,0,0,0,0,0,0,0,0,0,0,0,0,0,0,0,0,0],"id":33,"left_children":[1,3,5,7,9,11,13,15,17,19,21,23,25,27,-1,-1,-1,-1,29,31,33,35,37,39,41,-1,-1,-1,-1,-1,-1,-1,-1,-1,-1,-1,-1,-1,-1,-1,-1,-1,-1],"loss_changes":[2.5197211E5,1.3672969E4,4.2963547E4,1.0689609E3,1.769831E3,2.3739648E3,1.4150938E3,1.00171875E2,2.4358203E2,2.485498E2,4.2234845E2,4.1789746E2,2.7092383E2,1.9591406E2,0E0,0E0,0E0,0E0,4.3188477E0,3.9107666E1,2.6241943E1,4.85848E1,2.6381226E1,2.8091797E1,5.872754E1,0E0,0E0,0E0,0E0,0E0,0E0,0E0,0E0,0E0,0E0,0E0,0E0,0E0,0E0,0E0,0E0,0E0,0E0],"parents":[2147483647,0,0,1,1,2,2,3,3,4,4,5,5,6,6,7,7,8,8,9,9,10,10,11,11,12,12,13,13,18,18,19,19,20,20,21,21,22,22,23,23,24,24],"right_children":[2,4,6,8,10,12,14,16,18,20,22,24,26,28,-1,-1,-1,-1,30,32,34,36,38,40,42,-1,-1,-1,-1,-1,-1,-1,-1,-1,-1,-1,-1,-1,-1,-1,-1,-1,-1],"split_conditions":[7.56735E1,2.835E1,1.31591E2,1.29535E1,4.8446E1,9.97625E1,1.669775E2,7.13E0,1.935E1,3.84945E1,5.8957E1,8.6541E1,1.1408E2,1.515025E2,1.1497115E0,-4.8992524E-1,-4.3101993E-1,-3.76074E-1,2.61345E1,3.28315E1,4.2654E1,5.48905E1,6.75895E1,7.8375E1,9.2306E1,4.348959E-1,5.9351414E-1,8.10631E-1,9.529256E-1,-3.1769592E-1,-2.6864102E-1,-2.4696966E-1,-1.9396119E-1,-1.5005916E-1,-1.05239905E-1,-6.384372E-2,3.225939E-3,6.706487E-2,1.381867E-1,1.7623612E-1,2.345144E-1,2.9270646E-1,3.4949413E-1],"split_indices":[1,1,2,2,1,1,2,1,1,1,2,1,1,2,0,0,0,0,1,2,0,0,2,2,1,0,0,0,0,0,0,0,0,0,0,0,0,0,0,0,0,0,0],"split_type":[0,0,0,0,0,0,0,0,0,0,0,0,0,0,0,0,0,0,0,0,0,0,0,0,0,0,0,0,0,0,0,0,0,0,0,0,0,0,0,0,0,0,0],"sum_hessian":[3.157E3,2.071E3,1.086E3,1.479E3,5.92E2,6.16E2,4.7E2,7.89E2,6.9E2,3.95E2,1.97E2,4.68E2,1.48E2,3.58E2,1.12E2,1.61E2,6.28E2,4.93E2,1.97E2,2.1E2,1.85E2,1.35E2,6.2E1,1.6E2,3.08E2,7.4E1,7.4E1,8.6E1,2.72E2,1.36E2,6.1E1,8.7E1,1.23E2,1.23E2,6.2E1,9.8E1,3.7E1,2.5E1,3.7E1,4.9E1,1.11E2,1.6E2,1.48E2],"tree_param":{"num_deleted":"0","num_feature":"4","num_nodes":"43","size_leaf_vector":"1"}},{"base_weights":[3.2904275E-2,-6.114457E0,1.17507515E1,-7.658273E0,-2.2511148E0,6.139439E0,1.8134237E1,-8.471335E0,-6.8067703E0,-3.521665E0,-1.2723476E-1,5.2823253E0,8.583291E0,1.6042023E1,2.0246048E1,-4.6808097E-1,-4.1190362E-1,-3.597064E-1,-5.817031E0,-4.3877654E0,-2.9271781E0,-1.0028421E0,2.112448E0,3.9878147E0,5.863628E0,3.896171E-1,4.9967614E-1,6.6387933E-1,8.535234E-1,9.769533E-1,1.2667673E0,-3.036494E-1,-2.554043E-1,-2.3486899E-1,-1.9387715E-1,-1.6230199E-1,-1.1957085E-1,-6.955528E-2,-5.653748E-3,6.3895874E-2,1.313926E-1,1.5987559E-1,2.124126E-1,2.6664346E-1,3.1377754E-1],"categories":[],"categories_nodes":[],"categories_segments":[],"categories_sizes":[],"default_left":[0,0,0,0,0,0,0,0,0,0,0,0,0,0,0,0,0,0,0,0,0,0,0,0,0,0,0,0,0,0,0,0,0,0,0,0,0,0,0,0,0,0,0,0,0],"id":34,"left_children":[1,3,5,7,9,11,13,15,17,19,21,23,25,27,29,-1,-1,-1,31,33,35,37,39,41,43,-1,-1,-1,-1,-1,-1,-1,-1,-1,-1,-1,-1,-1,-1,-1,-1,-1,-1,-1,-1],"loss_changes":[2.275547E5,1.2340773E4,3.882472E4,9.669844E2,1.59976E3,1.1695645E3,1.91975E3,7.925391E1,2.372539E2,1.7817871E2,4.394399E2,3.0169727E2,8.8325195E1,5.1253906E2,4.00875E2,0E0,0E0,0E0,7.085449E0,5.3237305E0,3.0333252E1,5.5462433E1,2.373941E1,1.4614258E1,3.1248047E1,0E0,0E0,0E0,0E0,0E0,0E0,0E0,0E0,0E0,0E0,0E0,0E0,0E0,0E0,0E0,0E0,0E0,0E0,0E0,0E0],"parents":[2147483647,0,0,1,1,2,2,3,3,4,4,5,5,6,6,7,7,8,8,9,9,10,10,11,11,12,12,13,13,14,14,18,18,19,19,20,20,21,21,22,22,23,23,24,24],"right_children":[2,4,6,8,10,12,14,16,18,20,22,24,26,28,30,-1,-1,-1,32,34,36,38,40,42,44,-1,-1,-1,-1,-1,-1,-1,-1,-1,-1,-1,-1,-1,-1,-1,-1,-1,-1,-1,-1],"split_conditions":[7.30465E1,2.835E1,1.2165E2,1.27275E1,4.6795E1,9.5017E1,1.63084E2,6.7165E0,1.91555E1,3.5677E1,5.96485E1,8.3414E1,1.1118E2,1.516E2,1.759E2,-4.6808097E-1,-4.1190362E-1,-3.597064E-1,2.54255E1,3.34435E1,4.11995E1,5.0219E1,7.07E1,7.935E1,8.88695E1,3.896171E-1,4.9967614E-1,6.6387933E-1,8.535234E-1,9.769533E-1,1.2667673E0,-3.036494E-1,-2.554043E-1,-2.3486899E-1,-1.9387715E-1,-1.6230199E-1,-1.1957085E-1,-6.955528E-2,-5.653748E-3,6.3895874E-2,1.313926E-1,1.5987559E-1,2.124126E-1,2.6664346E-1,3.1377754E-1],"split_indices":[2,1,1,2,2,2,1,2,1,2,1,2,1,1,2,0,0,0,2,1,1,2,1,1,2,0,0,0,0,0,0,0,0,0,0,0,0,0,0,0,0,0,0,0,0],"split_type":[0,0,0,0,0,0,0,0,0,0,0,0,0,0,0,0,0,0,0,0,0,0,0,0,0,0,0,0,0,0,0,0,0,0,0,0,0,0,0,0,0,0,0,0,0],"sum_hessian":[3.157E3,2.071E3,1.086E3,1.479E3,5.92E2,5.79E2,5.07E2,7.52E2,7.27E2,3.7E2,2.22E2,4.31E2,1.48E2,2.59E2,2.48E2,1.48E2,6.04E2,5.18E2,2.09E2,1.48E2,2.22E2,1.6E2,6.2E1,1.36E2,2.95E2,9.9E1,4.9E1,7.4E1,1.85E2,2.22E2,2.6E1,1.48E2,6.1E1,8.7E1,6.1E1,1.36E2,8.6E1,1.11E2,4.9E1,2.5E1,3.7E1,3.7E1,9.9E1,1.35E2,1.6E2],"tree_param":{"num_deleted":"0","num_feature":"4","num_nodes":"45","size_leaf_vector":"1"}},{"base_weights":[3.2276142E-2,-5.9126673E0,1.0975862E1,-7.316675E0,-2.4495792E0,5.701723E0,1.7235464E1,-8.074333E0,-6.547927E0,-3.48626E0,-5.4720604E-1,4.798341E0,7.9298315E0,1.5512471E1,1.9567982E1,-4.44834E-1,-3.9247704E-1,-3.4496862E-1,-2.860557E-1,-4.3171606E0,-2.8707387E0,-1.2174008E0,1.0722492E0,3.52584E0,5.446777E0,3.4815714E-1,4.550065E-1,6.3131136E-1,8.206809E-1,9.4003993E-1,1.2064141E0,-2.3031059E-1,-1.8972057E-1,-1.6005135E-1,-1.21623695E-1,-7.486018E-2,-3.251919E-2,2.3883171E-2,9.665648E-2,1.3755167E-1,1.9446842E-1,2.4465469E-1,2.8859338E-1],"categories":[],"categories_nodes":[],"categories_segments":[],"categories_sizes":[],"default_left":[0,0,0,0,0,0,0,0,0,0,0,0,0,0,0,0,0,0,0,0,0,0,0,0,0,0,0,0,0,0,0,0,0,0,0,0,0,0,0,0,0,0,0],"id":35,"left_children":[1,3,5,7,9,11,13,15,17,19,21,23,25,27,29,-1,-1,-1,-1,31,33,35,37,39,41,-1,-1,-1,-1,-1,-1,-1,-1,-1,-1,-1,-1,-1,-1,-1,-1,-1,-1],"loss_changes":[2.055212E5,9.935008E3,3.6613312E4,7.951719E2,1.1656074E3,1.1797148E3,1.7380469E3,6.4921875E1,1.7207031E2,1.834873E2,2.2922893E2,3.380791E2,1.3235156E2,5.652344E2,2.880703E2,0E0,0E0,0E0,0E0,6.849365E0,2.4493652E1,2.2665497E1,3.0812378E1,3.126831E1,2.3057617E1,0E0,0E0,0E0,0E0,0E0,0E0,0E0,0E0,0E0,0E0,0E0,0E0,0E0,0E0,0E0,0E0,0E0,0E0],"parents":[2147483647,0,0,1,1,2,2,3,3,4,4,5,5,6,6,7,7,8,8,9,9,10,10,11,11,12,12,13,13,14,14,19,19,20,20,21,21,22,22,23,23,24,24],"right_children":[2,4,6,8,10,12,14,16,18,20,22,24,26,28,30,-1,-1,-1,-1,32,34,36,38,40,42,-1,-1,-1,-1,-1,-1,-1,-1,-1,-1,-1,-1,-1,-1,-1,-1,-1,-1],"split_conditions":[7.2603E1,2.7142E1,1.1815E2,1.2501E1,4.5562E1,9.597E1,1.617515E2,6.7165E0,1.8336E1,3.592E1,5.6508E1,8.48E1,1.0488E2,1.516E2,1.796E2,-4.44834E-1,-3.9247704E-1,-3.4496862E-1,-2.860557E-1,3.285E1,3.9072E1,4.9387E1,6.36695E1,7.8426E1,8.9494E1,3.4815714E-1,4.550065E-1,6.3131136E-1,8.206809E-1,9.4003993E-1,1.2064141E0,-2.3031059E-1,-1.8972057E-1,-1.6005135E-1,-1.21623695E-1,-7.486018E-2,-3.251919E-2,2.3883171E-2,9.665648E-2,1.3755167E-1,1.9446842E-1,2.4465469E-1,2.8859338E-1],"split_indices":[1,1,2,2,1,1,2,2,2,1,0,1,1,1,1,0,0,0,0,1,2,2,2,1,1,0,0,0,0,0,0,0,0,0,0,0,0,0,0,0,0,0,0],"split_type":[0,0,0,0,0,0,0,0,0,0,0,0,0,0,0,0,0,0,0,0,0,0,0,0,0,0,0,0,0,0,0,0,0,0,0,0,0,0,0,0,0,0,0],"sum_hessian":[3.157E3,2.046E3,1.111E3,1.455E3,5.91E2,6.04E2,5.07E2,7.28E2,7.27E2,3.82E2,2.09E2,4.32E2,1.72E2,2.96E2,2.11E2,1.48E2,5.8E2,5.05E2,2.22E2,1.6E2,2.22E2,1.48E2,6.1E1,1.48E2,2.84E2,9.8E1,7.4E1,7.4E1,2.22E2,1.85E2,2.6E1,9.8E1,6.2E1,1.23E2,9.9E1,9.8E1,5E1,3.7E1,2.4E1,5E1,9.8E1,1.11E2,1.73E2],"tree_param":{"num_deleted":"0","num_feature":"4","num_nodes":"43","size_leaf_vector":"1"}},{"base_weights":[3.1647604E-2,-5.6653876E0,1.0346091E1,-6.9919267E0,-2.5183737E0,5.36032E0,1.6381277E1,-7.671817E0,-6.2769456E0,-3.4822364E0,-8.5165715E-1,4.3249393E0,7.170253E0,1.3837043E1,1.7795662E1,-4.1903025E-1,-3.718102E-1,-3.298772E-1,-2.8052017E-1,-2.1393347E-1,-2.8916178E0,-1.3813239E0,5.1545405E-1,3.0302763E0,4.899253E0,3.1891987E-1,4.3239012E-1,5.6555825E-1,7.3412526E-1,8.468934E-1,1.0501198E0,-1.5793526E-1,-1.21889725E-1,-8.773818E-2,-5.2175798E-2,3.0620927E-3,5.7973873E-2,1.2246567E-1,1.6824862E-1,2.164872E-1,2.600065E-1],"categories":[],"categories_nodes":[],"categories_segments":[],"categories_sizes":[],"default_left":[0,0,0,0,0,0,0,0,0,0,0,0,0,0,0,0,0,0,0,0,0,0,0,0,0,0,0,0,0,0,0,0,0,0,0,0,0,0,0,0,0],"id":36,"left_children":[1,3,5,7,9,11,13,15,17,19,21,23,25,27,29,-1,-1,-1,-1,-1,31,33,35,37,39,-1,-1,-1,-1,-1,-1,-1,-1,-1,-1,-1,-1,-1,-1,-1,-1],"loss_changes":[1.8562822E5,8.477781E3,3.373343E4,6.4746094E2,9.68959E2,1.1252285E3,1.5818125E3,5.941797E1,1.1321289E2,1.6778564E2,1.621893E2,2.7885303E2,2.0575195E2,2.3113672E2,5.327344E2,0E0,0E0,0E0,0E0,0E0,1.9329834E1,1.8479156E1,1.8357964E1,1.5869385E1,2.4092773E1,0E0,0E0,0E0,0E0,0E0,0E0,0E0,0E0,0E0,0E0,0E0,0E0,0E0,0E0,0E0,0E0],"parents":[2147483647,0,0,1,1,2,2,3,3,4,4,5,5,6,6,7,7,8,8,9,9,10,10,11,11,12,12,13,13,14,14,20,20,21,21,22,22,23,23,24,24],"right_children":[2,4,6,8,10,12,14,16,18,20,22,24,26,28,30,-1,-1,-1,-1,-1,32,34,36,38,40,-1,-1,-1,-1,-1,-1,-1,-1,-1,-1,-1,-1,-1,-1,-1,-1],"split_conditions":[6.75895E1,2.66225E1,1.2165E2,1.27605E1,4.24505E1,9.2282E1,1.56001E2,7.188E0,1.80855E1,3.41385E1,5.5527E1,8.23365E1,1.0488E2,1.43998E2,1.71211E2,-4.1903025E-1,-3.718102E-1,-3.298772E-1,-2.8052017E-1,-2.1393347E-1,3.8583E1,4.80455E1,5.945E1,7.4768E1,8.79615E1,3.1891987E-1,4.3239012E-1,5.6555825E-1,7.3412526E-1,8.468934E-1,1.0501198E0,-1.5793526E-1,-1.21889725E-1,-8.773818E-2,-5.2175798E-2,3.0620927E-3,5.7973873E-2,1.2246567E-1,1.6824862E-1,2.164872E-1,2.600065E-1],"split_indices":[2,1,1,1,2,2,2,2,1,1,1,1,1,1,2,0,0,0,0,0,2,2,0,2,1,0,0,0,0,0,0,0,0,0,0,0,0,0,0,0,0],"split_type":[0,0,0,0,0,0,0,0,0,0,0,0,0,0,0,0,0,0,0,0,0,0,0,0,0,0,0,0,0,0,0,0,0,0,0,0,0,0,0,0,0],"sum_hessian":[3.157E3,2.034E3,1.123E3,1.43E3,6.04E2,6.16E2,5.07E2,7.28E2,7.02E2,3.82E2,2.22E2,3.94E2,2.22E2,1.85E2,3.22E2,1.73E2,5.55E2,4.68E2,2.34E2,1.6E2,2.22E2,1.6E2,6.2E1,1.23E2,2.71E2,1.48E2,7.4E1,5E1,1.35E2,2.59E2,6.3E1,1.36E2,8.6E1,7.4E1,8.6E1,3.7E1,2.5E1,4.8E1,7.5E1,9.9E1,1.72E2],"tree_param":{"num_deleted":"0","num_feature":"4","num_nodes":"41","size_leaf_vector":"1"}},{"base_weights":[3.0933162E-2,-5.3830876E0,9.832981E0,-6.661184E0,-2.434949E0,5.094529E0,1.5568791E1,-7.2894306E0,-5.988748E0,-3.425605E0,-9.371009E-1,4.233192E0,7.0676646E0,1.4145617E1,1.7936134E1,-4.019304E-1,-3.5423777E-1,-3.1340912E-1,-2.6871023E-1,-2.1001922E-1,-2.8925662E0,-1.4182421E0,4.9064878E-1,3.0409508E0,4.8437934E0,3.1158137E-1,4.110956E-1,5.697674E-1,7.460156E-1,8.573944E-1,1.098606E0,-1.5856649E-1,-1.258987E-1,-9.166732E-2,-5.1956397E-2,2.912963E-3,5.518658E-2,1.2201025E-1,1.72051E-1,2.1889125E-1,2.5862953E-1],"categories":[],"categories_nodes":[],"categories_segments":[],"categories_sizes":[],"default_left":[0,0,0,0,0,0,0,0,0,0,0,0,0,0,0,0,0,0,0,0,0,0,0,0,0,0,0,0,0,0,0,0,0,0,0,0,0,0,0,0,0],"id":37,"left_children":[1,3,5,7,9,11,13,15,17,19,21,23,25,27,29,-1,-1,-1,-1,-1,31,33,35,37,39,-1,-1,-1,-1,-1,-1,-1,-1,-1,-1,-1,-1,-1,-1,-1,-1],"loss_changes":[1.6764322E5,7.651676E3,3.0469727E4,5.558125E2,9.123269E2,1.01869336E3,1.4577969E3,5.4835938E1,8.497461E1,1.4106885E2,1.7037233E2,2.9975928E2,1.2825293E2,5.1603906E2,2.1814062E2,0E0,0E0,0E0,0E0,0E0,1.5300903E1,2.720871E1,1.6636402E1,2.7413818E1,2.086621E1,0E0,0E0,0E0,0E0,0E0,0E0,0E0,0E0,0E0,0E0,0E0,0E0,0E0,0E0,0E0,0E0],"parents":[2147483647,0,0,1,1,2,2,3,3,4,4,5,5,6,6,7,7,8,8,9,9,10,10,11,11,12,12,13,13,14,14,20,20,21,21,22,22,23,23,24,24],"right_children":[2,4,6,8,10,12,14,16,18,20,22,24,26,28,30,-1,-1,-1,-1,-1,32,34,36,38,40,-1,-1,-1,-1,-1,-1,-1,-1,-1,-1,-1,-1,-1,-1,-1,-1],"split_conditions":[6.75895E1,2.61345E1,1.1815E2,1.2501E1,4.1661E1,9.37725E1,1.63218E2,6.8495E0,1.80855E1,3.34435E1,5.5527E1,8.15195E1,1.016E2,1.45369E2,1.759E2,-4.019304E-1,-3.5423777E-1,-3.1340912E-1,-2.6871023E-1,-2.1001922E-1,3.799E1,4.8446E1,5.945E1,7.59155E1,8.775E1,3.1158137E-1,4.110956E-1,5.697674E-1,7.460156E-1,8.573944E-1,1.098606E0,-1.5856649E-1,-1.258987E-1,-9.166732E-2,-5.1956397E-2,2.912963E-3,5.518658E-2,1.2201025E-1,1.72051E-1,2.1889125E-1,2.5862953E-1],"split_indices":[2,1,2,2,2,2,2,1,1,1,1,2,2,2,2,0,0,0,0,0,2,1,0,2,2,0,0,0,0,0,0,0,0,0,0,0,0,0,0,0,0],"split_type":[0,0,0,0,0,0,0,0,0,0,0,0,0,0,0,0,0,0,0,0,0,0,0,0,0,0,0,0,0,0,0,0,0,0,0,0,0,0,0,0,0],"sum_hessian":[3.157E3,2.034E3,1.123E3,1.418E3,6.16E2,6.16E2,5.07E2,7.28E2,6.9E2,3.7E2,2.46E2,4.31E2,1.85E2,3.21E2,1.86E2,1.48E2,5.8E2,4.68E2,2.22E2,1.48E2,2.22E2,1.84E2,6.2E1,1.48E2,2.83E2,1.11E2,7.4E1,7.4E1,2.47E2,1.6E2,2.6E1,1.23E2,9.9E1,8.6E1,9.8E1,3.7E1,2.5E1,6.2E1,8.6E1,1.23E2,1.6E2],"tree_param":{"num_deleted":"0","num_feature":"4","num_nodes":"41","size_leaf_vector":"1"}},{"base_weights":[3.0288367E-2,-4.9842076E0,9.588711E0,-6.2426877E0,-1.8349073E0,5.3077464E0,1.5176325E1,-6.7797103E0,-5.3684907E0,-2.567722E0,6.2298536E-1,4.3852434E0,7.8933125E0,1.4255118E1,1.7968687E1,-3.646472E-1,-3.226829E-1,-2.8241637E-1,-2.2680977E-1,-3.25353E0,-1.7455884E0,-3.1404093E-1,1.7286042E0,3.3712764E0,4.9201374E0,6.674774E0,4.600787E-1,6.454157E-1,7.451179E-1,8.564891E-1,1.1153775E0,-1.9132005E-1,-1.4600998E-1,-1.0487471E-1,-6.16942E-2,-3.376215E-2,2.7712672E-3,5.2480865E-2,1.0738423E-1,1.4085336E-1,1.8449509E-1,2.2653253E-1,2.670971E-1,3.358918E-1,7.428551E-2],"categories":[],"categories_nodes":[],"categories_segments":[],"categories_sizes":[],"default_left":[0,0,0,0,0,0,0,0,0,0,0,0,0,0,0,0,0,0,0,0,0,0,0,0,0,0,0,0,0,0,0,0,0,0,0,0,0,0,0,0,0,0,0,0,0],"id":38,"left_children":[1,3,5,7,9,11,13,15,17,19,21,23,25,27,29,-1,-1,-1,-1,31,33,35,37,39,41,43,-1,-1,-1,-1,-1,-1,-1,-1,-1,-1,-1,-1,-1,-1,-1,-1,-1,-1,-1],"loss_changes":[1.5141286E5,8.200566E3,2.5920898E4,6.5841016E2,1.0696993E3,1.4370488E3,9.554375E2,1.0571875E2,1.06668945E2,2.5198901E2,1.4247403E2,2.3127441E2,1.9524219E2,1.20578125E2,2.91875E1,0E0,0E0,0E0,0E0,3.6183105E1,3.522699E1,1.0046325E1,1.5672394E1,1.8035522E1,2.4590332E1,9.459473E0,0E0,0E0,0E0,0E0,0E0,0E0,0E0,0E0,0E0,0E0,0E0,0E0,0E0,0E0,0E0,0E0,0E0,0E0,0E0],"parents":[2147483647,0,0,1,1,